-1.562500000000000033e-04 -9.122500000000000497e+00 7.623220092990470875e-02 -8.948719216485568348e-04 -7.623220092990469487e-04 -7.378125000000000785e-04 -4.250559865831227829e-02 -8.320066033048791054e-02 -8.173528573876637183e-04 -1.624669188660697039e-01 -5.922451666176502651e-04 -1.118654885958783292e-04 3.637407031249999950e-02 4.201562500000000436e-03
-1.562500000000000033e-04 -1.050609374999999979e+01 8.625945427221851092e-02 9.355384031329290299e-04 -8.625945427221851742e-04 8.768750000000000502e-04 7.614696207302222575e-02 -5.746254734642800704e-02 -6.417453573150118775e-04 -1.654600925100346565e-01 -1.132615933772904496e-03 -1.432409123700890663e-05 3.940378906249999980e-02 1.772656250000000100e-02
-1.562500000000000033e-04 -3.703437500000000160e+00 5.719939326286307274e-02 -1.207033844756129782e-03 -5.719939326286307057e-04 -9.593749999999999414e-04 -1.038896126928595537e-01 -9.415395060132175642e-02 -5.555592180630464184e-04 -1.700138043612781924e-01 -1.363832956396847937e-03 8.051981973139121145e-05 3.552228906249999679e-02 -4.753125000000000405e-03
-1.562500000000000033e-04 -5.104218750000000249e+00 -1.090223138816357878e-01 1.015189756968523562e-03 1.090223138816357688e-03 -6.290624999999999559e-04 8.390642631051378753e-02 -8.187220831148024625e-02 7.515057198382177556e-04 -1.438111639548112497e-01 -1.284235157168719986e-04 2.193815193602015558e-06 4.013230468750000196e-02 -3.134999999999999593e-02
-1.562500000000000033e-04 -9.399687500000000639e+00 -6.824612555530508440e-02 1.221972351945998158e-03 nan -3.493750000000000219e-04 6.941602134382025835e-02 -9.364445536206707221e-02 5.381838399088341267e-04 -1.464741756333589884e-01 -6.736040345768376601e-04 4.126094946005987783e-05 4.006051562500000107e-02 -2.468437499999999798e-02
-1.562500000000000033e-04 -3.313906250000000053e+00 9.588861880973013896e-02 6.701869885845966948e-04 -9.588861880973011294e-04 1.030000000000000100e-03 6.890589129190752282e-02 -6.190653186157851068e-02 -8.406696796063216825e-04 -1.645070568328078908e-01 -1.836126880484542472e-03 -1.640459481568268751e-04 3.874148281249999853e-02 5.420312499999999784e-03
-1.562500000000000033e-04 -7.682343750000000249e+00 -9.813219550388306567e-02 7.596837875766845709e-04 9.813219550388306307e-04 nan 1.448269549429635761e-01 -9.120975661448971206e-02 1.144138502566860579e-03 -1.443030583272602863e-01 -2.572915841671987044e-04 -2.390966087620868851e-05 4.028663593750000244e-02 -4.086718750000000594e-02
1.562500000000000033e-04 5.157812500000000355e+00 6.428323856885470589e-02 9.268486903595367626e-04 -6.428323856885470458e-04 4.326562500000000438e-04 -7.844083376214457115e-02 6.864865870958705707e-02 nan 1.626706149062085716e-01 1.028404893571064054e-03 -2.682882067828421888e-05 -3.813045625000000688e-02 1.128906250000000049e-02
-1.562500000000000033e-04 -3.168437500000000018e+00 -7.756171015395035839e-02 8.149829915418863686e-04 7.756171015395036230e-04 -9.148437500000000753e-04 9.789875642633547037e-02 -8.872537524903632844e-02 9.685408170396004116e-04 -1.445711719355131930e-01 -1.697684095802147605e-04 -1.792236760578274518e-04 3.941806406250000089e-02 -3.814218750000000074e-02
1.562500000000000033e-04 7.236875000000000391e+00 8.237399766932519685e-02 1.237844608777673768e-03 -8.237399766932518644e-04 5.243750000000001014e-04 -6.220343607706737415e-02 5.335556338190108189e-02 7.779083641116377656e-04 1.627210414627058843e-01 3.232537778926304812e-04 -8.274664119353703721e-05 -3.821488593749999829e-02 -1.406249999999999962e-05
1.562500000000000033e-04 5.565468749999999964e+00 9.452093154962533383e-02 8.569044605843853220e-04 -9.452093154962536029e-04 8.371874999999999326e-04 -8.293685868077901868e-02 7.576135489473836970e-02 8.905708690284171863e-04 1.619195870403869475e-01 1.452051858586101080e-03 -7.758648412584620861e-05 -3.792057499999999803e-02 1.009531250000000012e-02
1.562500000000000033e-04 7.273437500000000000e+00 6.852452337294583085e-02 8.313309933990913102e-04 -6.852452337294580049e-04 4.709375000000000019e-04 -8.102511214786008165e-02 6.516626457624478952e-02 7.502244676586546047e-04 1.635565559412489878e-01 9.964008711869029328e-04 -1.436935537036066412e-04 -3.826772500000000243e-02 3.228125000000000092e-03
1.562500000000000033e-04 4.163593750000000426e+00 1.107960334120393353e-01 2.664670205508034044e-04 -1.107960334120393310e-03 1.107968750000000013e-03 -5.136139926444270587e-02 6.804721606586533467e-02 9.844764335194837370e-04 1.620356745150335065e-01 1.267230389949685005e-03 -1.467413173008042394e-04 -3.812556718750000073e-02 1.181250000000000008e-03
-1.562500000000000033e-04 -5.935000000000000497e+00 8.503000762908982657e-02 1.142008748378707658e-03 -8.503000762908979838e-04 9.656250000000000120e-04 4.999169927028677268e-02 -6.119576817056127799e-02 -4.554268574991640552e-04 -1.691533451168313884e-01 -1.710748573884098879e-03 -2.771697935588843102e-04 3.923830625000000044e-02 1.256562500000000041e-02
-1.562500000000000033e-04 -6.998593750000000391e+00 3.086364338935169288e-02 -4.285069428065404595e-04 -3.086364338935169180e-04 -1.031718750000000084e-03 -8.239942546417988734e-02 -9.462353131530286399e-02 -8.562652065863115766e-04 -1.661753688552632668e-01 -1.469919399352832574e-03 1.738514241121477308e-04 3.635306875000000187e-02 3.115625000000000339e-03
-1.562500000000000033e-04 -3.379687500000000178e+00 6.994528316187532957e-02 -6.323011151190878086e-04 -6.994528316187532827e-04 -7.732812499999999886e-04 -1.265866379907663042e-01 -9.617673244515831388e-02 -5.708585250390492806e-04 -1.681021641020852553e-01 -1.503578041545263746e-03 -8.860867880750120541e-05 3.584098281250000517e-02 -2.656250000000000191e-03
-1.562500000000000033e-04 -6.547968749999999893e+00 -7.353964947292521148e-02 8.622287009032825016e-04 7.353964947292521712e-04 -6.914062499999999636e-04 6.785832283160873890e-02 -9.322032639474742144e-02 6.502848397510229469e-04 -1.511287362027124437e-01 -7.855335564149815153e-04 1.774932830862962422e-04 3.941772500000000068e-02 -2.722968750000000215e-02
-1.562500000000000033e-04 -9.186875000000000568e+00 -1.017498044621563680e-01 7.532454457645532423e-04 1.017498044621563749e-03 -6.807812500000000712e-04 7.316948800150466226e-02 -9.787076344231027125e-02 8.135425064863334487e-04 -1.461842641105886298e-01 -4.786260350579062931e-04 -2.712727317416236073e-05 3.983175937499999764e-02 -3.318281249999999877e-02
-1.562500000000000033e-04 -2.434062500000000018e+00 2.360753261460387872e-02 -1.073727709042590064e-03 -2.360753261460387569e-04 -1.235312500000000299e-03 -1.008511642502226691e-01 -9.491292641447973688e-02 -9.871009867535741195e-04 -1.704773173440954637e-01 -1.829496467209913236e-03 -4.071192260957521496e-05 3.543265000000000303e-02 -1.753125000000000126e-03
1.562500000000000033e-04 8.892031250000000497e+00 7.158234783554383307e-02 1.090873209771913831e-03 -7.158234783554383567e-04 8.884375000000000128e-04 -9.057321733086434734e-02 6.301995160321133271e-02 6.665327740979295904e-04 1.643805054926044951e-01 5.400810920905838378e-04 1.096961472831492095e-05 -3.796860000000000512e-02 5.953125000000000300e-04
-1.562500000000000033e-04 nan -1.099302418042787804e-01 6.028463264786035726e-04 1.099302418042788021e-03 -9.165625000000000595e-04 6.769536853627475259e-02 -9.542697962213689267e-02 7.858630139636256463e-04 -1.476519352545211106e-01 -4.743579172342303669e-04 -2.539082600346292008e-05 3.948835625000000210e-02 -3.362500000000000211e-02
-1.562500000000000033e-04 -4.981562499999999893e+00 -1.077118971455322538e-01 9.004934006137312475e-04 1.077118971455322391e-03 -9.284375000000000093e-04 2.581161310390933661e-03 nan 3.085073270992108553e-04 -1.501738793585294940e-01 -6.924942587564408489e-04 -2.441843022318602443e-04 3.925299374999999952e-02 -2.138906249999999662e-02
-1.562500000000000033e-04 -6.230156250000000284e+00 4.135598609343744958e-02 -9.296798522170650250e-04 -4.135598609343744936e-04 -1.067031250000000054e-03 -1.164790102680379469e-01 -9.794114555682040257e-02 -7.635520657769593158e-04 -1.686795929002299910e-01 -1.455952888674451459e-03 -5.693548002084926460e-05 3.574899843749999861e-02 2.687500000000000002e-04
1.562500000000000033e-04 7.029218750000000071e+00 1.051823608876953642e-01 2.054942273397543839e-05 -1.051823608876953755e-03 1.472031250000000032e-03 -1.108900669349169171e-01 7.217136471711013690e-02 8.309732327556662904e-05 1.677476880570970830e-01 9.915666870935928908e-04 2.730890242432071195e-04 -3.841104218750000798e-02 3.665625000000000046e-03
-1.562500000000000033e-04 -1.242765625000000007e+01 7.987913099318331989e-02 -1.244247429566118328e-03 -7.987913099318332119e-04 -9.014062500000000807e-04 -6.558681234025309781e-02 -1.036183738030603124e-01 -1.107751217233462039e-03 -1.617851256764513967e-01 -1.138816933440049608e-03 -3.688316851309007767e-05 3.575623124999999930e-02 1.000000000000000021e-03
1.562500000000000033e-04 7.266406250000000178e+00 7.940018568013983147e-02 9.551787596774656769e-04 -7.940018568013982930e-04 5.131250000000000177e-04 -6.055562208583024214e-02 6.364374070482338441e-02 8.034476898828247973e-04 1.620438176957707532e-01 7.983054969432225962e-04 2.078181575157480795e-04 -3.822838750000000230e-02 3.087500000000000400e-03
-1.562500000000000033e-04 -1.035093750000000057e+01 6.547220081548661696e-02 1.039879627765265182e-03 -6.547220081548663735e-04 9.384375000000000355e-04 5.031560456747094512e-02 -6.384812494492755897e-02 -7.559214797634468538e-04 -1.624911717028269531e-01 -1.365474866643526025e-03 -3.561288010866812460e-06 3.953867031250000302e-02 1.428749999999999985e-02
1.562500000000000033e-04 5.154843750000000391e+00 9.571766130756549640e-02 6.509898052947961627e-04 -9.571766130756551418e-04 8.034375000000001151e-04 -8.262648866683350302e-02 7.111167823233048579e-02 2.937496799430984028e-04 1.637170042243780710e-01 1.042295139608648367e-03 9.447145566312985167e-05 -3.830316874999999815e-02 1.190625000000000017e-02
-1.562500000000000033e-04 -6.312656249999999858e+00 -3.701388734399813779e-02 7.933985944691502928e-04 3.701388734399814733e-04 -8.620312500000000587e-04 8.511857951297732705e-02 -9.439005911023329309e-02 7.742686924748444412e-04 -1.527963715725201843e-01 -6.839263597584731855e-04 2.423508124281381734e-04 3.896685312499999915e-02 -2.704062500000000216e-02
1.562500000000000033e-04 7.629999999999999893e+00 7.161594342862810658e-02 5.205915670280043470e-04 -7.161594342862810485e-04 9.053124999999999757e-04 -5.580380951002902878e-02 5.115384795360377462e-02 1.339994093153666155e-03 1.642726294369566409e-01 6.335964193760554178e-04 3.402132558218505097e-05 -3.808298750000000538e-02 -1.563437499999999897e-02
1.562500000000000033e-04 7.653750000000000497e+00 9.376271093569352177e-02 5.413323466886133103e-04 -9.376271093569350876e-04 1.075156250000000157e-03 -1.060193193749840307e-01 6.050556656969899999e-02 8.886583160503405904e-04 1.670691746571376646e-01 1.007798968097177363e-03 3.049714523297471355e-04 -3.822178125000000315e-02 -5.709375000000000040e-03
-1.562500000000000033e-04 -9.080000000000000071e+00 -8.036592770079929726e-02 4.425085401891137491e-04 8.036592770079930117e-04 -8.990624999999999051e-04 1.070579733750985502e-01 -9.663147009303132973e-02 1.094367635442893569e-03 -1.495454902706018774e-01 -2.706619633903598944e-04 -5.603051676242275372e-05 3.942747812499999838e-02 -3.496874999999999983e-02
-1.562500000000000033e-04 -8.790468750000000497e+00 4.710677695486950589e-02 -6.985306846425124372e-04 -4.710677695486950936e-04 -1.022656249999999911e-03 -1.385981019325820962e-01 -1.016555319439386568e-01 -8.950862368889551902e-04 -1.679834107301653723e-01 -1.492274506558305099e-03 1.871181845822250808e-04 3.588278750000000600e-02 5.478125000000000355e-03
1.562500000000000033e-04 8.512031249999999716e+00 6.462109124373180413e-02 7.668026276771627630e-04 -6.462109124373182278e-04 5.092187500000000143e-04 -5.673384268804037428e-02 5.090849751652583993e-02 7.193864456681416325e-04 1.643914416676404422e-01 2.513724251460247540e-04 7.099474649588335582e-05 -3.845368750000000002e-02 -7.634374999999999668e-03
-1.562500000000000033e-04 -1.112015625000000085e+01 1.197687345368200346e-01 -7.789792357413484903e-04 -1.197687345368200415e-03 nan -1.047831898168781750e-01 -9.180261544722913281e-02 -5.441866088850662786e-04 -1.629059901120898379e-01 -3.817051520626032644e-04 nan 3.606570937499999768e-02 5.948437500000000600e-03
-1.562500000000000033e-04 -6.945312500000000000e+00 4.359392060539595687e-02 -1.124702359953401497e-03 -4.359392060539595275e-04 -1.090156249999999979e-03 -3.933038227697661232e-02 -9.181606667724832860e-02 -3.838519192807985053e-04 -1.635680502409341541e-01 -7.320520178621908562e-04 -1.101756105340953095e-06 3.612596093749999987e-02 -7.951562500000000297e-03
1.562500000000000033e-04 6.751875000000000071e+00 8.893965348982346697e-02 1.052917517182170790e-03 -8.893965348982345179e-04 8.032812500000000673e-04 -5.999263435176975523e-02 5.922530618874220776e-02 4.319904703690488211e-04 1.622546563592077162e-01 2.461967574165567323e-04 2.565946611934729281e-04 -3.818025937499999745e-02 4.829687499999999779e-03
1.562500000000000033e-04 9.363593749999999716e+00 6.005830312923089720e-02 1.045453059724958276e-03 -6.005830312923089330e-04 1.033906250000000103e-03 -1.117533679356790960e-01 7.130532243866689879e-02 7.574604773372354410e-04 1.646430037395684998e-01 9.000519681368916378e-04 1.712425728163499336e-04 -3.771232343750000049e-02 2.425000000000000072e-03
-1.562500000000000033e-04 -6.371093750000000000e+00 9.677368304791565679e-02 1.388681827553070458e-03 -9.677368304791564377e-04 1.081249999999999963e-03 4.181596338062781859e-02 -5.883441222843227569e-02 -1.067571177928897325e-03 -1.650245964348810712e-01 -1.829421355984521286e-03 7.464710442164468652e-06 3.927697656250000308e-02 1.959062500000000040e-02
-1.562500000000000033e-04 -5.772968750000000426e+00 -9.298336200242406091e-02 7.093691602970112918e-04 9.298336200242408520e-04 -9.101562500000000494e-04 8.234263971384328529e-02 -9.368703832550957789e-02 6.960491033721654449e-04 nan -6.505837302920184154e-04 -7.375755998622905078e-05 3.935155937499999756e-02 -3.196562500000000445e-02
-1.562500000000000033e-04 -8.177187500000000497e+00 -7.720057746392312847e-02 7.583191224258311117e-04 7.720057746392313194e-04 -8.471875000000002841e-04 6.465353461530068402e-02 -9.428154954287669420e-02 8.145424994450532622e-04 -1.475072602632827024e-01 -2.783971728087968381e-04 2.214010935477351541e-04 3.945278281249999658e-02 -2.954062500000000091e-02
1.562500000000000033e-04 4.577031250000000107e+00 7.600234853553837489e-02 8.555166426091904280e-04 -7.600234853553837835e-04 1.033437500000000068e-03 -6.849124670251184599e-02 7.532219657807762148e-02 7.212716184948561333e-04 1.609101580768333706e-01 1.107523561070552663e-03 -2.954163728268640048e-04 -3.760845468750000087e-02 1.104375000000000148e-02
-1.562500000000000033e-04 -6.557031250000000533e+00 9.248102807058343477e-02 -1.031810128500353996e-03 -9.248102807058343131e-04 -5.026562500000000648e-04 -6.071173126469864983e-02 -8.956544718102624203e-02 -1.026409117694639453e-03 -1.628962897512622465e-01 -1.182626094582155465e-03 1.109389680924766130e-04 3.597981718749999891e-02 -4.000000000000000192e-04
1.562500000000000033e-04 6.990781250000000391e+00 6.758764050521638700e-02 6.020168823607316031e-04 -6.758764050521638526e-04 3.543749999999999808e-04 -4.308621053908696930e-02 5.473519907990427591e-02 nan 1.627438871640595197e-01 9.846790668333121280e-04 1.161038084970697314e-04 -3.832070937500000468e-02 -1.010781250000000048e-02
1.562500000000000033e-04 8.052500000000000213e+00 6.876364236984502942e-02 8.081681034261650439e-04 -6.876364236984502812e-04 7.096875000000000318e-04 -9.393562193898766233e-02 6.015858316852235738e-02 5.424231499796609542e-04 1.655487502655006160e-01 6.271068970147399349e-04 -2.250638169355304705e-05 -3.828198437500000134e-02 -1.953125000000000108e-04
-1.562500000000000033e-04 -1.146640625000000036e+01 6.484786389832190856e-02 -1.133532730705319198e-03 -6.484786389832190596e-04 -1.080624999999999988e-03 -7.642225787139803050e-02 -1.042641267523986282e-01 -1.237507127039809115e-03 -1.653482441737856301e-01 -1.492043749328016275e-03 2.592734965318245770e-04 3.561261874999999827e-02 4.520312500000000025e-03
-1.562500000000000033e-04 -9.236250000000000071e+00 6.104877603532544300e-02 -6.831414081891196144e-04 -6.104877603532544777e-04 -7.168750000000000643e-04 -7.393011363420519400e-02 -8.887309276812102588e-02 -9.906782035375230350e-04 -1.632656497393156769e-01 -1.019285743653181552e-03 -1.791704604812667859e-04 3.642257968750000491e-02 6.048437499999999994e-03
1.562500000000000033e-04 8.154687499999999645e+00 7.752732024485102513e-02 7.281854939277143841e-04 -7.752732024485101472e-04 8.029687499999998632e-04 -7.934321361043682186e-02 5.542698922232550812e-02 7.821000461574800560e-04 1.652269998129225481e-01 5.296095968387207024e-04 1.654441808873173016e-04 -3.828961406249999783e-02 -6.087500000000000029e-03
-1.562500000000000033e-04 -1.071406250000000071e+01 6.058513007034551506e-02 7.194718703086174470e-04 -6.058513007034552157e-04 1.085156249999999966e-03 6.549442089588519700e-02 -6.308014242485777967e-02 -2.688359651612671889e-04 -1.654031999733738822e-01 -1.193368431595257352e-03 6.320744730839145109e-05 3.968504531250000023e-02 8.484375000000000597e-03
-1.562500000000000033e-04 -8.305781250000000782e+00 -1.003229387324656441e-01 5.830599047201605800e-04 1.003229387324656302e-03 -8.651562500000001482e-04 6.731896670392388538e-02 -9.250903257648020184e-02 8.874270293211697185e-04 -1.488250010514913790e-01 -2.537771896872774479e-04 3.128829510737872748e-04 3.956389687500000418e-02 -3.061406250000000065e-02
-1.562500000000000033e-04 -6.693125000000000213e+00 -6.572315035175130271e-02 9.369361575312340181e-04 6.572315035175130401e-04 -6.353125000000000265e-04 7.666733950720434898e-02 -9.165099483517645529e-02 7.201454981229193746e-04 -1.497688044200700952e-01 -6.268653855307707154e-04 1.081537690315472166e-04 3.954196875000000333e-02 -2.773750000000000174e-02
-1.562500000000000033e-04 -7.481250000000000178e+00 7.939002597563320218e-02 8.304870791383970946e-04 -7.939002597563320565e-04 1.242500000000000115e-03 7.197964780398924400e-02 -5.832656753566448776e-02 -3.456170002589944805e-04 -1.687679675255055745e-01 -1.534305893206739388e-03 1.892350893511351062e-04 3.953466875000000158e-02 9.939062499999999981e-03
-1.562500000000000033e-04 -6.405156250000000107e+00 1.029803920469504475e-01 2.171533702717169732e-04 -1.029803920469504579e-03 7.270312500000001383e-04 1.105682839562362185e-01 -5.661660972443580131e-02 -4.335547115156071778e-04 -1.666522535678119921e-01 -1.071247837478080372e-03 -1.919018488610202574e-04 3.862370156250000131e-02 6.290625000000000210e-03
-1.562500000000000033e-04 -1.022781250000000064e+01 8.095012955777720898e-02 -6.876996372198339227e-04 -8.095012955777722329e-04 -9.792187500000000544e-04 -6.448079747150538277e-02 -1.001422389671062368e-01 nan -1.634148261173010708e-01 -1.412022674470279080e-03 9.156864072245407104e-06 3.589376406249999985e-02 5.814062500000000654e-03
-1.562500000000000033e-04 -6.915937500000000071e+00 -6.914527824969346481e-02 6.499873170170353265e-04 6.914527824969347132e-04 -9.009375000000000456e-04 1.132997119117130636e-01 -8.895493872649730405e-02 1.015527207204233381e-03 -1.486386450037941176e-01 -1.263616792748997752e-04 -6.454900128217996402e-05 3.944916406250000007e-02 -3.243437500000000140e-02
-1.562500000000000033e-04 -1.067765625000000007e+01 3.759075594604042309e-02 1.322948799556493936e-03 -3.759075594604040335e-04 4.773437500000000120e-04 5.664150053896799958e-02 -7.221290532560120656e-02 -1.106933856025402521e-03 -1.611568098381432612e-01 -1.812613845254234255e-03 9.472968716022719157e-05 3.940004062500000043e-02 1.575156249999999994e-02
1.562500000000000033e-04 5.859843750000000462e+00 1.024659835460987323e-01 6.271501648528276076e-04 -1.024659835460987314e-03 nan -8.831381141865064788e-02 7.625289241347478486e-02 5.777804421207534879e-04 1.631772543606961334e-01 1.293001098190456419e-03 9.318312942332786816e-05 -3.806339375000000053e-02 1.019218750000000159e-02
-1.562500000000000033e-04 -8.524218749999999289e+00 6.261592088753055452e-02 6.483043371326376080e-04 -6.261592088753056623e-04 7.360937500000000943e-04 7.492498806534765576e-02 -6.379416758857006653e-02 -4.905042645434100779e-04 -1.648846255353005885e-01 -1.314641368982852158e-03 6.754906686785645310e-05 3.917309687500000748e-02 7.828125000000000014e-03
1.562500000000000033e-04 2.950312499999999893e+00 1.062412679492468204e-01 7.421567102884447063e-04 -1.062412679492468143e-03 4.673437500000000400e-04 -5.651479797781694403e-02 5.953977801461140390e-02 8.257006213786793718e-04 1.622252446114647861e-01 1.097589181660733708e-03 -2.081936620362404618e-04 -3.841028124999999738e-02 6.454687500000000355e-03
-1.562500000000000033e-04 -7.087656250000000213e+00 -9.051051584208050227e-02 7.519804196534574580e-04 9.051051584208055691e-04 -8.732812500000000340e-04 4.483410079852528929e-02 -9.255009564184453474e-02 5.048033439505935499e-04 -1.522044008986969399e-01 -7.532071317020662318e-04 -9.406999213330999277e-05 3.926389375000000070e-02 -2.348906250000000126e-02
-1.562500000000000033e-04 -8.078593749999999574e+00 7.209520929544505075e-02 9.198879334919723982e-04 -7.209520929544505248e-04 1.073281250000000017e-03 5.221605110756823848e-02 -6.179890108777245233e-02 -5.479831333877785123e-04 -1.652313243954406652e-01 -1.470082111285439357e-03 1.731082539394950253e-04 3.944586406250000232e-02 1.074999999999999914e-02
-1.562500000000000033e-04 -6.915937500000000071e+00 5.507814546295894398e-02 -8.596327544344592800e-04 -5.507814546295894788e-04 -9.820312500000000482e-04 -1.184024285457735970e-01 -1.022654290163961810e-01 -6.839738698895933468e-04 -1.682980621516584341e-01 -1.523836452020001057e-03 -2.406065471024832782e-04 3.575243281250000543e-02 -1.153125000000000070e-03
1.562500000000000033e-04 9.700468750000000639e+00 6.753680174656175039e-02 7.438993261482479630e-04 -6.753680174656172524e-04 8.725000000000000117e-04 -6.925877240401331902e-02 5.213375304771045160e-02 9.390840909995912950e-04 1.650981381571165751e-01 2.870471158032691190e-04 7.858196988810358535e-05 -3.819968281250000347e-02 -1.244062500000000029e-02
1.562500000000000033e-04 1.101750000000000007e+01 2.994718860006453931e-02 7.362792687700749376e-04 -2.994718860006453476e-04 8.773437500000000853e-04 -1.265853518107086517e-01 5.677451643686065585e-02 4.430207638820660241e-04 1.694789206134576787e-01 3.542454769735379171e-04 -8.772561189377976309e-05 -3.813455937500000170e-02 -8.960937500000000153e-03
1.562500000000000033e-04 8.724999999999999645e+00 5.097214372205675220e-02 1.157363930964256651e-03 -5.097214372205675654e-04 8.903125000000000448e-04 -9.427998327720335525e-02 6.427943798322005575e-02 5.582150483257301713e-04 nan 4.294184016916190280e-04 -1.720120280271916844e-04 -3.778134843750000083e-02 2.398437499999999962e-03
1.562500000000000033e-04 1.146140624999999957e+01 5.884146186492482389e-02 7.089534553911420187e-04 -5.884146186492482519e-04 1.069218750000000074e-03 -1.103121369221221476e-01 6.016603320368320990e-02 1.000282661454987261e-03 1.673478465475924937e-01 6.907215195824140293e-04 1.308386565541129259e-04 -3.802047656250000240e-02 -1.257968750000000059e-02
1.562500000000000033e-04 1.003421875000000085e+01 6.337120762169286270e-02 6.793587105403750418e-04 -6.337120762169286357e-04 9.082812500000000174e-04 -1.402870462512962324e-01 7.272059790137250235e-02 8.259390730119036328e-04 1.680450255978698515e-01 1.432046588846555253e-03 3.032869211092050396e-05 -3.806537031250000619e-02 -1.014062499999999990e-03
-1.562500000000000033e-04 -4.759531250000000213e+00 9.502515095878816265e-02 -1.098484304086015315e-03 -9.502515095878814877e-04 -6.051562500000000084e-04 -1.728696453187390791e-02 -8.445930782759437927e-02 -1.025775038886914993e-03 -1.622991539057423716e-01 -1.101550451049881658e-03 -6.421081162697919026e-05 3.592309531250000021e-02 -2.795312500000000054e-03
-1.562500000000000033e-04 -6.128906250000000000e+00 -8.532888305598304579e-02 8.090120042393300365e-04 8.532888305598306617e-04 -8.181250000000002756e-04 7.471959124167622257e-02 -9.123452796853737112e-02 8.780705020003154492e-04 -1.456491803295326959e-01 -2.144253576338471458e-04 -1.833895923317083968e-04 3.957962812500000205e-02 -3.341093750000000140e-02
1.562500000000000033e-04 9.165468750000000497e+00 8.734141825815210092e-02 1.124887587079013637e-03 -8.734141825815211740e-04 5.879687499999999498e-04 -6.013127678069969673e-02 5.730372437986773482e-02 1.402125203653281030e-03 1.620791748351451400e-01 7.751917685192035151e-04 2.083369925203166855e-04 -3.811589218750000008e-02 -7.379687499999999963e-03
-1.562500000000000033e-04 nan 2.957344258735191550e-02 -7.353304907920177802e-04 -2.957344258735190379e-04 -1.214999999999999934e-03 -9.944653699383672329e-02 -9.662688701082558507e-02 -9.331271978875950489e-04 -1.664920552292429856e-01 -1.274558285787144672e-03 -2.121645112619009895e-04 3.604097500000000287e-02 5.393750000000000974e-03
-1.562500000000000033e-04 -8.798906249999999929e+00 7.244535157198032926e-02 3.840215798874445558e-04 -7.244535157198033534e-04 5.504687500000000682e-04 7.776510472050668366e-02 -7.003858092646512989e-02 -4.738236735314282281e-04 -1.614863166094793467e-01 -1.149100503875195379e-03 4.953978556292514245e-05 3.878448124999999552e-02 2.164062500000000187e-03
-1.562500000000000033e-04 -5.922031249999999858e+00 7.937797403325898282e-02 6.373466988452198721e-04 -7.937797403325898195e-04 8.945312499999999271e-04 nan -6.361565376529204618e-02 -7.399777331788591570e-04 -1.643861810214527486e-01 -1.665168686182904624e-03 -6.141293355554339043e-05 3.893900781250000248e-02 6.195312500000000298e-03
1.562500000000000033e-04 7.225000000000000533e+00 8.284801862569875219e-02 1.023715057080929304e-03 -8.284801862569874092e-04 4.918750000000000162e-04 -9.007542115928600379e-02 6.289747827498370913e-02 2.370012606113800001e-04 1.643715653603083082e-01 6.015199919976269580e-04 7.117209477348334788e-05 -3.846898593750000539e-02 9.001562500000000883e-03
-1.562500000000000033e-04 -8.569843750000000426e+00 3.186990275190529354e-02 -6.246908053604482633e-04 -3.186990275190529332e-04 -1.205937499999999978e-03 -1.260439708687448590e-01 -9.751342111017993752e-02 -9.033955696330972897e-04 -1.690730083062981504e-01 -1.417453014330421123e-03 -2.015295065952047025e-06 3.596562031250000874e-02 8.046875000000000208e-03
1.562500000000000033e-04 8.591562500000000213e+00 6.888184784857738496e-02 1.016566797747329130e-03 -6.888184784857735764e-04 7.490624999999999454e-04 -6.140250616898852709e-02 6.422498467262229005e-02 9.531752078157607012e-04 1.618999272108034848e-01 6.595951053673252329e-04 -1.802480589027070522e-04 -3.793868593750000101e-02 -9.812500000000001343e-04
-1.562500000000000033e-04 -1.085031249999999936e+01 8.709856477245733752e-02 -1.192512296173421030e-03 -8.709856477245734229e-04 -8.232812500000000113e-04 -9.971084521000028733e-02 -9.947670733816398048e-02 -7.053254247349806123e-04 -1.655346106339076473e-01 -9.359894130512157618e-04 -2.109921666431345284e-05 3.575309374999999928e-02 1.437499999999999976e-03
-1.562500000000000033e-04 -7.242187500000000000e+00 4.660347996625590489e-02 -8.663088654470968951e-04 -4.660347996625589253e-04 -1.040312500000000005e-03 -6.755264072407966836e-02 -1.008198851911670246e-01 -7.496468626524138831e-04 -1.637798218036387032e-01 -1.364665881004045473e-03 -2.266345250820951532e-05 3.598878125000000427e-02 -5.120312500000000731e-03
1.562500000000000033e-04 1.107312500000000099e+01 5.464606351556280245e-02 3.535710836611471357e-04 -5.464606351556280939e-04 7.206250000000000199e-04 -8.893359282511306696e-02 6.519619233962713201e-02 7.590171032585812244e-04 1.663515550417181410e-01 8.944486574215756731e-04 -6.082397653334023811e-05 -3.843326562500000432e-02 -8.517187500000000452e-03
1.562500000000000033e-04 1.068109375000000050e+01 6.541887217288638867e-02 3.748010538694088439e-04 -6.541887217288644895e-04 8.543749999999999912e-04 -8.145472108349682827e-02 7.175156527138458473e-02 7.897271078055199869e-04 1.647725028856286411e-01 1.060842110313456278e-03 1.721164808658242815e-04 -3.828966718750000109e-02 -4.431250000000000293e-03
1.562500000000000033e-04 7.199843750000000320e+00 7.410778882524013400e-02 4.412103567247548639e-04 -7.410778882524012446e-04 7.314062500000000685e-04 -6.321811647426427150e-02 6.339717163239824704e-02 9.618896464460928962e-04 1.636193038365546248e-01 1.012861266796627425e-03 9.797559136820745119e-05 -3.825324687500000070e-02 -4.151562499999999871e-03
-1.562500000000000033e-04 -1.723437499999999956e+00 nan 1.069175444672381499e-03 -1.225004827864878670e-03 5.082812500000000525e-04 1.030334422253538634e-01 -5.485311929345093596e-02 -1.539638659432820489e-03 -1.664635519315512124e-01 -2.106471572684445390e-03 -7.200046548737771678e-05 3.817191093749999764e-02 1.956874999999999934e-02
-1.562500000000000033e-04 -5.919843750000000071e+00 8.060014405510490532e-02 1.021910197738758316e-03 -8.060014405510490748e-04 1.170468750000000068e-03 7.778719413482299005e-02 -5.788776245942433424e-02 nan -1.689354000113343357e-01 -1.900206470914842481e-03 1.904505926770185410e-04 3.939469062499999924e-02 1.290781250000000088e-02
-1.562500000000000033e-04 -8.770937500000000497e+00 -5.250974012153222098e-02 7.683423664266935500e-04 5.250974012153222271e-04 -8.440625000000000861e-04 7.921515538878064200e-02 -9.908935808646111842e-02 6.638889803464119704e-04 -1.517217694070581990e-01 -7.700791608834821117e-04 -1.945480470264243753e-04 3.913197812500000122e-02 -2.628124999999999906e-02
1.562500000000000033e-04 9.148281250000000142e+00 7.456080611051214835e-02 7.296642149119833770e-04 -7.456080611051215399e-04 1.007031250000000114e-03 -1.160700177011123879e-01 5.941327787278787714e-02 7.639313170630190972e-04 1.676367461196457131e-01 7.593655227926801501e-04 -1.895852811078537999e-04 -3.815808906250000437e-02 -6.215625000000000663e-03
1.562500000000000033e-04 8.061249999999999361e+00 6.322353742955504063e-02 5.075254468413010383e-04 -6.322353742955502632e-04 9.796874999999998727e-04 -6.343638301505727384e-02 7.092380077818508100e-02 nan 1.624625808916238812e-01 9.907366697927131368e-04 3.954592423323312845e-06 -3.790662656249999679e-02 -1.753125000000000126e-03
1.562500000000000033e-04 3.251093749999999893e+00 1.032987568215570084e-01 7.922758430191554051e-04 -1.032987568215569833e-03 7.537499999999999712e-04 -4.298898230756181826e-02 6.831253081936024263e-02 6.087038992368594978e-04 1.596647969554197688e-01 9.226009600501317151e-04 9.154321901742734708e-06 -3.811434531250000590e-02 1.230000000000000017e-02
1.562500000000000033e-04 5.076718750000000391e+00 1.239181175517079653e-01 8.771712528386026424e-04 -1.239181175517079826e-03 7.776562500000000272e-04 -8.333987319386786108e-02 6.692964285137077696e-02 1.111114874686975262e-03 1.626946275510832152e-01 1.443055233086324492e-03 3.838221777136918787e-05 -3.820417656250000432e-02 5.576562499999999922e-03
1.562500000000000033e-04 7.351874999999999716e+00 8.775873749369317300e-02 9.615662122714088537e-04 -8.775873749369317474e-04 5.857812500000000389e-04 -3.858303589631224828e-02 6.037798846686932841e-02 6.640001271601533774e-04 1.606474169990631529e-01 3.922538344463855379e-04 -1.329893370493974761e-04 -3.830835781249999905e-02 2.678124999999999950e-03
-1.562500000000000033e-04 -1.057609375000000007e+01 -3.745246315823962807e-02 5.412529890888976864e-04 3.745246315823962937e-04 -8.203124999999999696e-04 9.411973805451394337e-02 -1.030239617267134089e-01 1.155025945487595613e-03 -1.504401920125995051e-01 -3.348097773290614016e-04 2.304072609299749380e-04 3.916363593749999650e-02 -3.312656249999999802e-02
-1.562500000000000033e-04 -7.460781250000000142e+00 -7.405616632089798146e-02 8.130131237590214940e-04 7.405616632089799620e-04 -8.145312499999999341e-04 9.346869946858120393e-02 -9.347151601483563721e-02 8.941785389444203720e-04 -1.455531886217114323e-01 -2.249503023457338909e-04 nan 3.958759062500000203e-02 -3.332500000000000046e-02
-1.562500000000000033e-04 -9.427656250000000071e+00 -4.821009654255895699e-02 5.640084453637653553e-04 4.821009654255895244e-04 -1.075468749999999819e-03 3.610272801854828156e-02 -9.938743312253901785e-02 7.717936994317370304e-04 -1.537899127942495281e-01 -4.662209667223653990e-04 1.429098029992174499e-04 3.872280000000000166e-02 -2.307968750000000124e-02
-1.562500000000000033e-04 -5.987031250000000249e+00 5.404551335853680777e-02 -1.087742750679815667e-03 -5.404551335853682598e-04 -9.157812500000002539e-04 -7.272203299103641161e-02 -9.266667280434129350e-02 -8.979297761963721519e-04 -1.637134753131155307e-01 -1.171260693986233637e-03 1.361164625511894987e-04 3.586866093749999790e-02 -2.932812500000000090e-03
1.562500000000000033e-04 1.351890625000000057e+01 3.701346740913975114e-02 6.077430635765724990e-04 -3.701346740913975461e-04 nan -5.228524497936622162e-02 6.380176123877366601e-02 4.103097110131912807e-04 1.638387750712074487e-01 -3.845353821801732679e-05 2.470759522566401403e-05 -3.826093281250000228e-02 -9.001562500000000883e-03
1.562500000000000033e-04 6.256406250000000391e+00 6.620776676232888180e-02 1.140171735864864639e-03 -6.620776676232888571e-04 8.945312499999999271e-04 -6.463927668012896255e-02 6.129624500156145156e-02 5.229932423002621282e-04 1.620665636416231958e-01 2.857250026787276479e-04 2.181281134813316952e-04 -3.779303593749999690e-02 5.065625000000000683e-03
1.562500000000000033e-04 5.155468749999999822e+00 1.152024599331257226e-01 6.843758454389597045e-04 -1.152024599331257556e-03 8.460937500000000576e-04 -5.517296998008808240e-02 4.659671248623600132e-02 5.694373107025013821e-04 1.643115809847347508e-01 1.920185552331291577e-04 3.201476557974939149e-05 -3.858228906249999701e-02 -3.557812500000000211e-03
-1.562500000000000033e-04 -6.308906249999999716e+00 -8.268586580130697639e-02 5.915034624199931980e-04 8.268586580130698983e-04 -9.254687499999998592e-04 1.008410946335272645e-01 -9.610723927034199587e-02 8.567157201333220869e-04 -1.501023399642205103e-01 -6.501300656494826604e-04 7.750828371445187893e-05 3.926046250000000265e-02 -3.443437500000000318e-02
-1.562500000000000033e-04 -7.565000000000000391e+00 7.104646825702774782e-02 -6.487795887934965332e-04 -7.104646825702774868e-04 -8.537500000000001251e-04 -9.182620405437863509e-02 -9.517420442970184191e-02 -7.867985234659832447e-04 -1.663134902147108962e-01 -1.284485716292413761e-03 1.185299965147429462e-04 3.604767031250000198e-02 3.020312499999999994e-03
-1.562500000000000033e-04 -5.593124999999999680e+00 1.035104366173383306e-01 6.942050769872556938e-04 -1.035104366173383080e-03 5.534375000000000015e-04 9.763179858891947449e-02 -5.850351822947735120e-02 -9.442651140415668932e-04 -1.652248495260688899e-01 -1.476401025794282090e-03 1.467346963872073751e-04 3.851886093750000323e-02 1.303593750000000065e-02
1.562500000000000033e-04 1.128421875000000085e+01 6.019682739061869847e-02 9.080084374925734975e-04 -6.019682739061871539e-04 6.418750000000000844e-04 -7.928386238131679420e-02 5.924085411996744127e-02 5.742296036422281022e-04 1.650300668378570090e-01 3.007887926229038558e-04 5.267975452550845367e-05 -3.836050781249999986e-02 -5.132812500000000222e-03
-1.562500000000000033e-04 -5.062656249999999858e+00 -1.036424153076233035e-01 5.840560356487502344e-04 1.036424153076233095e-03 -8.314062500000002224e-04 5.561146001533982114e-02 -9.710671162805756262e-02 7.164680933533188346e-04 -1.526476139814593458e-01 -1.010508776632435251e-03 -1.262218630314375573e-04 3.921639999999999848e-02 -3.270156249999999626e-02
1.562500000000000033e-04 5.606250000000000178e+00 8.933654289363597567e-02 1.087934193599226747e-03 -8.933654289363596526e-04 7.292187499999999408e-04 -8.240500687656883427e-02 6.009727852233125167e-02 7.070544236407256189e-04 1.633407268571166471e-01 7.201560475403912280e-04 -1.709327399978181992e-04 -3.808095937500000083e-02 5.098437500000000538e-03
-1.562500000000000033e-04 -1.175093750000000092e+01 9.930846893859920921e-02 -8.492676773874612397e-04 -9.930846893859920661e-04 -6.567187500000000759e-04 -8.409984833280287342e-02 -9.819018379594197932e-02 -5.630476502677814665e-04 -1.627851694689651241e-01 -7.382958366202396977e-04 -2.559908178206548457e-05 3.619614843749999894e-02 1.284375000000000143e-03
1.562500000000000033e-04 8.822968749999999361e+00 8.270359456702205958e-02 6.570032974314303671e-04 -8.270359456702205698e-04 1.076562500000000045e-03 -7.998379335402239221e-02 6.034804065730733913e-02 9.898844446322944274e-04 1.647932555184890846e-01 7.094021663858363514e-04 -1.532185121040511905e-04 -3.806790624999999845e-02 -7.890625000000000069e-03
-1.562500000000000033e-04 -8.983281250000000995e+00 4.952471817250275743e-02 -1.102619148286618006e-03 -4.952471817250274789e-04 -1.064218750000000061e-03 -6.865807572669363479e-02 -9.937096000174422405e-02 -1.191746209155271482e-03 -1.643367308984668984e-01 -1.448590888005437446e-03 -1.260106637151461786e-04 3.575198281249999943e-02 1.414062500000000172e-03
-1.562500000000000033e-04 -7.411718750000000355e+00 -8.035438235716425848e-02 1.084162727981284255e-03 8.035438235716426195e-04 -5.615624999999999957e-04 4.681007024736331262e-02 -9.271381918967180891e-02 4.098605834343269018e-04 -1.493873315737518914e-01 -8.587912983741132020e-04 8.607367996982098269e-05 3.966230156250000194e-02 -2.301718750000000119e-02
-1.562500000000000033e-04 -9.217812500000000853e+00 8.278650723402114497e-02 1.179981008091942566e-03 -8.278650723402115148e-04 8.501562500000000005e-04 6.562596024571114295e-02 -5.813216123640523730e-02 -1.098710980393658105e-03 -1.634697079354945071e-01 -1.481904280733992510e-03 -2.764788591566311789e-04 3.932837031250000642e-02 2.094062500000000090e-02
-1.562500000000000033e-04 -1.033187500000000014e+01 -2.405451443473212783e-02 1.086656709878112970e-03 2.405451443473212545e-04 -7.129687499999999524e-04 3.689026288994184943e-02 -8.961758653824035414e-02 7.040204752877329700e-04 nan 1.230762685236287496e-05 1.271407612936794153e-04 3.937881250000000583e-02 -1.703125000000000125e-02
1.562500000000000033e-04 1.031703124999999943e+01 6.543718729502130682e-02 8.190573164671094506e-04 -6.543718729502130379e-04 6.182812500000000157e-04 -1.049127232417250838e-01 6.848677917158127459e-02 7.712248678593307738e-04 1.656437962933609842e-01 1.064517811343381869e-03 6.921977883938201445e-05 -3.827384999999999815e-02 -6.453124999999999443e-04
-1.562500000000000033e-04 -1.017984374999999986e+01 5.319955137059291517e-02 1.495925696834765183e-03 -5.319955137059291994e-04 1.092343750000000216e-03 3.756007584183181092e-02 -6.627714224714333080e-02 -8.367674902127375698e-04 -1.645848078644066015e-01 -1.868898551949880029e-03 -2.893371572335601814e-05 3.990068281250000459e-02 1.746093749999999903e-02
-1.562500000000000033e-04 -8.386250000000000426e+00 8.881793013185222685e-02 6.624251138441034298e-04 -8.881793013185224420e-04 1.127187499999999717e-03 8.730900333155774962e-02 -5.470484088394494959e-02 -2.173019483938350214e-04 -1.698628250231961068e-01 -1.205872532318731823e-03 nan 3.942857031250000116e-02 1.149531249999999859e-02
-1.562500000000000033e-04 -1.260906250000000028e+01 9.140923893090564800e-02 -4.984116382606638669e-04 -9.140923893090564844e-04 -7.784375000000000495e-04 -1.706857204020106877e-01 -9.743212042010902796e-02 -9.944145297701729308e-04 -1.669700906694595866e-01 -1.003775077085714267e-03 -1.979196848418892935e-04 3.600965468750000342e-02 1.681093750000000123e-02
-1.562500000000000033e-04 -1.079953124999999936e+01 1.003230754173747435e-01 -1.047501619505894878e-03 -1.003230754173747245e-03 -6.371875000000000585e-04 -9.160205278646260663e-02 nan -4.459510352640815717e-04 -1.586334374422991855e-01 -2.131346743196654771e-04 nan 3.618389375000000824e-02 -2.843749999999999924e-03
-1.562500000000000033e-04 -9.857031250000000355e+00 8.374423450768089805e-02 -8.132746622839435134e-04 -8.374423450768090152e-04 -7.729687500000000013e-04 -9.158472683825982785e-02 -9.476392294059061971e-02 -2.223193935151909024e-04 -1.613495469242798297e-01 -3.676312446562555319e-04 9.256520458487544061e-05 3.632449062500000408e-02 -3.496874999999999983e-03
-1.562500000000000033e-04 -1.552437500000000092e+01 1.004950111417079184e-01 -6.038339828556212345e-04 -1.004950111417079236e-03 -7.740625000000000110e-04 -1.301153535252753402e-01 -9.925693018610505514e-02 -5.097512231516225251e-04 nan -3.395097949349552011e-04 -2.096004796500734561e-04 3.635631250000000148e-02 9.770312500000001218e-03
-1.562500000000000033e-04 -5.118281249999999893e+00 -8.742383178512268260e-02 6.968656308431711750e-04 8.742383178512268390e-04 -8.487500000000001120e-04 9.267577918523503544e-02 -8.838163370861192025e-02 8.225962919182409731e-04 -1.503583151608952895e-01 -5.025519056526682633e-04 -3.768620087978001869e-05 3.942943437500000259e-02 -3.127656250000000054e-02
-1.562500000000000033e-04 -6.859843750000000462e+00 9.621504506960358583e-02 -8.253332923326634277e-04 -9.621504506960358799e-04 -5.210937499999999641e-04 -8.633924207458713862e-02 -8.927537635986058928e-02 -4.882639031464086903e-04 -1.608640709736421370e-01 -5.976696684954754465e-04 -1.396373957001041850e-04 3.624536562499999781e-02 -3.601562500000000163e-03
-1.562500000000000033e-04 -1.013953125000000099e+01 8.117588059837749226e-02 9.940226864228460853e-04 -8.117588059837748272e-04 1.085156249999999966e-03 9.824997077185271266e-02 -5.238040070714526653e-02 -6.569959040905347034e-04 nan -1.364984877893196799e-03 3.116957610614108491e-04 3.968450781249999865e-02 2.012343750000000070e-02
1.562500000000000033e-04 4.743750000000000355e+00 1.115804597077741933e-01 5.940681841641930151e-04 -1.115804597077742037e-03 8.979687500000001123e-04 -7.570829808167536812e-02 6.472771814815074520e-02 1.101342912849276800e-03 1.632146757304461238e-01 1.343700635565477390e-03 1.627917218761101782e-04 -3.817051093750000595e-02 1.292187499999999933e-03
1.562500000000000033e-04 8.397968750000000426e+00 6.285939715547739226e-02 5.515817906635956747e-04 -6.285939715547739053e-04 1.270468750000000114e-03 -9.742521979585590242e-02 6.183153882039133659e-02 7.947963893553250652e-04 1.663583316974717174e-01 6.679124417760356732e-04 4.995184607553666102e-05 -3.785598281250000113e-02 -7.398437500000000500e-03
-1.562500000000000033e-04 -8.722187500000000426e+00 9.455767070119831808e-02 -5.701717925011127617e-04 -9.455767070119831938e-04 -7.881249999999999801e-04 -9.470630491585937949e-02 -1.079500709246586226e-01 -6.596757738963552860e-04 -1.627395449813900663e-01 -1.405839121589830742e-03 -1.515669831078933570e-04 3.593784374999999670e-02 -3.829687500000000192e-03
-1.562500000000000033e-04 -5.979218750000000249e+00 7.549642384733808165e-02 nan -7.549642384733806950e-04 7.918750000000000441e-04 9.213345857048137189e-02 -6.346622150223832359e-02 -9.195237389984530331e-04 -1.668395015372712564e-01 -2.023892320682385386e-03 5.605929564120181341e-05 3.903968124999999956e-02 1.183906249999999889e-02
-1.562500000000000033e-04 -3.987656250000000124e+00 6.816388225533544232e-02 -1.011697364268318187e-03 -6.816388225533544579e-04 -7.607812499999999558e-04 -8.158931245694454881e-02 -8.248965527956685084e-02 -6.968077692530330429e-04 -1.634631183320287007e-01 -7.425659561730738132e-04 -9.360094747655063168e-06 3.600304687499999989e-02 -2.018750000000000145e-03
1.562500000000000033e-04 1.421968750000000092e+01 7.787850641646957596e-03 6.361020683847437660e-04 -7.787850641646956566e-05 7.739062500000000715e-04 -1.199237999761418871e-01 6.555328703756910236e-02 3.978265109398052717e-04 1.685776938965130312e-01 4.108089090846088346e-04 -3.626658278116125234e-04 -3.816589843750000516e-02 -9.528125000000000136e-03
1.562500000000000033e-04 6.297500000000000320e+00 8.987690380911467214e-02 6.678227000138775831e-04 -8.987690380911465566e-04 nan 9.383974961214847088e-05 5.257908528678358756e-02 1.269002061816951275e-03 1.590969533271355540e-01 5.850450664786663963e-04 -1.958915339237007623e-05 -3.849569062500000222e-02 -7.042187499999999836e-03
-1.562500000000000033e-04 -7.709687500000000249e+00 8.220093448320402174e-02 6.306972576796091457e-04 -8.220093448320400483e-04 9.006249999999999499e-04 9.807656366259660807e-02 -5.851921841852360945e-02 -6.760833264940230725e-04 -1.659449305105175909e-01 -1.428543612358879099e-03 -2.523305303610951476e-04 3.912826875000000038e-02 1.064687500000000009e-02
1.562500000000000033e-04 6.986875000000000391e+00 5.664112998288852591e-02 8.179022858414274760e-04 -5.664112998288853068e-04 5.804687500000000385e-04 -5.390465728168730014e-02 7.502125832091215141e-02 6.689754930698757658e-04 1.605443245954488174e-01 1.013443824954497665e-03 -1.083909045948503309e-04 -3.795356250000000292e-02 8.696874999999999745e-03
-1.562500000000000033e-04 -6.995312499999999822e+00 8.311006199286544160e-02 8.054595569672866502e-04 -8.311006199286541819e-04 8.714062500000001104e-04 6.281034377876112962e-02 -6.246306375235245040e-02 -6.055000646569977732e-04 -1.650662095379226979e-01 -1.459276442087590079e-03 nan 3.906510468750000464e-02 9.596875000000001238e-03
-1.562500000000000033e-04 -7.184687499999999893e+00 7.640289187294743711e-02 7.755828248892778984e-04 -7.640289187294744796e-04 nan 9.646937918913899013e-02 -6.226560945126655144e-02 -8.637880049127623534e-04 -1.655027427137904517e-01 -1.502722235805927040e-03 8.800310966782212327e-05 3.870786250000000234e-02 1.301093749999999993e-02
1.562500000000000033e-04 6.648593749999999858e+00 1.026718898629904730e-01 1.269904182720362797e-03 -1.026718898629904678e-03 6.123437500000000408e-04 -4.606841614421885306e-02 4.986062806447181389e-02 4.417867581570081499e-04 1.619424234469278856e-01 -1.070606012032875742e-04 5.557561788754244379e-05 -3.840362812500000556e-02 2.843749999999999924e-03
-1.562500000000000033e-04 -7.331093749999999964e+00 6.318315414714936740e-02 7.934879128889838623e-04 -6.318315414714938518e-04 7.203125000000000326e-04 5.045398271165918436e-02 -7.134936309135093968e-02 -6.201338519545912184e-04 -1.623641732138239313e-01 -1.605726349382552215e-03 -1.331955276558767060e-05 3.901123125000000025e-02 4.425000000000000114e-03
-1.562500000000000033e-04 -5.024062500000000320e+00 -6.707116439667858143e-02 1.217278440003032730e-03 6.707116439667859791e-04 -6.717187500000001152e-04 5.663485577098528040e-02 -8.317945216514907592e-02 5.515899493339135708e-04 -1.456980192433217636e-01 -2.519838744249119846e-04 6.557933976508083327e-05 3.968497968750000354e-02 -2.399843750000000067e-02
-1.562500000000000033e-04 -9.026406250000000853e+00 9.514296796663637701e-02 1.555220637216726820e-03 -9.514296796663636096e-04 9.115624999999999379e-04 7.197260352667660122e-02 -5.607881415013562382e-02 -1.483476417932666188e-03 -1.638586299756515929e-01 -1.815200845445154526e-03 1.521433635109381848e-04 3.939543281250000584e-02 2.818281250000000127e-02
1.562500000000000033e-04 1.068468750000000078e+01 5.589615876412586115e-02 7.670112959093424452e-04 -5.589615876412585335e-04 7.548437500000000893e-04 -6.507373021485948761e-02 4.732701699965256859e-02 1.186954212169194804e-03 1.652636536048476545e-01 2.092708718705750656e-04 3.836348047975294070e-05 -3.820381093749999901e-02 -1.868593749999999942e-02
-1.562500000000000033e-04 -3.442812500000000053e+00 5.961969586449648861e-02 -8.976852923454575837e-04 nan -8.034375000000001151e-04 -3.408641131918201811e-02 -9.099361490472727965e-02 -7.777035916024738552e-04 -1.642084531172631479e-01 -1.421742279025318620e-03 -2.794353922036933204e-04 3.603267343749999574e-02 -7.395312499999999976e-03
-1.562500000000000033e-04 nan 6.406927813513060843e-02 -8.475781583059355077e-04 -6.406927813513061364e-04 -9.812500000000001343e-04 -1.009995391521718300e-01 -9.611420405167113434e-02 -5.296379172320532340e-04 -1.639688398070293929e-01 -5.780438588999112443e-04 1.988286588812807672e-04 3.623226562500000275e-02 3.953125000000000042e-03
-1.562500000000000033e-04 -1.129046875000000050e+01 1.016027936941859833e-01 -7.609423628060277538e-04 -1.016027936941859677e-03 -7.523437500000000827e-04 -8.094063440019683142e-02 -9.806257012594007949e-02 -6.419023331516556441e-04 -1.609541176528712370e-01 -6.834736903557755636e-04 2.035174504507101351e-04 3.614437031250000709e-02 1.257812500000000033e-03
-1.562500000000000033e-04 -1.019640625000000078e+01 8.874012030057018552e-02 nan -8.874012030057024276e-04 -7.112499999999999682e-04 -9.732616143201014425e-02 -9.058563662348805001e-02 -8.786078438234208587e-04 -1.640932201259332757e-01 -8.496619187126867997e-04 6.172384728233906723e-07 3.622848593749999901e-02 8.740625000000000130e-03
1.562500000000000033e-04 7.578593750000000462e+00 5.876050384717081826e-02 8.500409068489009172e-04 -5.876050384717079657e-04 9.659375000000001077e-04 -1.001684668206356266e-01 6.614477857221943979e-02 4.359804767003607005e-04 1.652711711712384623e-01 6.575949979708914242e-04 -6.100564052706467281e-05 -3.792057812499999986e-02 3.482812499999999797e-03
-1.562500000000000033e-04 -9.756562499999999361e+00 -1.158345223007473945e-01 2.116067643836536290e-04 1.158345223007473460e-03 -1.216093749999999727e-03 8.750095792030235242e-02 -9.339124440985190068e-02 1.096645622036527363e-03 -1.478988056913352611e-01 1.796110664069406140e-04 -8.649919436583137209e-05 3.939872968750000870e-02 -3.426562500000000094e-02
-1.562500000000000033e-04 -8.869218749999999929e+00 -6.950976404090290772e-02 8.330726684886774133e-04 6.950976404090290729e-04 -7.104687499999999458e-04 nan -9.831827696780305603e-02 8.399760106225863431e-04 -1.465049229932147423e-01 -3.561657230515575677e-04 -6.521431985997005619e-05 3.952383906250000328e-02 -3.074062500000000059e-02
-1.562500000000000033e-04 -7.271875000000000533e+00 9.322440527556904999e-02 -8.473698533769182277e-04 -9.322440527556904825e-04 -6.407812499999999663e-04 -7.113102246367755677e-02 -9.567253928162219867e-02 -7.215566038488044429e-04 -1.623341027077480070e-01 -1.083556650098296869e-03 2.419303547155345156e-04 3.602583437500000291e-02 -3.320312499999999913e-03
-1.562500000000000033e-04 -7.385312500000000391e+00 -7.334468126965661139e-02 8.639975570955002937e-04 7.334468126965660879e-04 -6.220312499999999713e-04 8.139821822534580587e-02 -9.724777805039985790e-02 7.223180168855895030e-04 -1.496497679679471837e-01 -8.361940495848525648e-04 -2.481868808592942090e-04 3.954513750000000077e-02 -3.074687499999999990e-02
1.562500000000000033e-04 1.020046875000000064e+01 6.081287998722361560e-02 9.068918901567254044e-04 -6.081287998722362514e-04 6.870312500000000334e-04 -7.016307682569902782e-02 6.644031675983105845e-02 8.315804326537268136e-04 1.630582545371528636e-01 6.910027007499961382e-04 -6.085729745780279798e-05 -3.809071250000000547e-02 -2.037499999999999815e-03
-1.562500000000000033e-04 -3.499687500000000284e+00 -9.368518924751488564e-02 8.914850087358175369e-04 9.368518924751490602e-04 -7.281250000000000396e-04 8.906199563904378114e-02 -9.321872100710547338e-02 5.886344886728123822e-04 -1.488126904073759360e-01 -1.012157714207243984e-03 -6.425492665474620709e-05 3.947103906250000460e-02 -3.394531249999999806e-02
-1.562500000000000033e-04 -1.006171875000000071e+01 -9.328697283305381616e-02 5.387813541239630131e-04 9.328697283305379317e-04 -1.149843750000000041e-03 1.495271327050484711e-02 nan 6.522431054739231569e-04 -1.497275965780019980e-01 -1.760761401617834648e-04 2.798553210471010910e-04 3.907902187500000152e-02 -2.310781249999999815e-02
-1.562500000000000033e-04 -6.618593750000000497e+00 8.791904756787896624e-02 9.375790584885932170e-04 -8.791904756787897231e-04 8.146875000000000904e-04 8.280922529024049850e-02 -5.870751332591531840e-02 -1.001209611622952671e-03 -1.651016123111934408e-01 -1.659861733125988191e-03 6.970398577121643868e-05 3.900195000000000051e-02 1.519843750000000014e-02
-1.562500000000000033e-04 -5.600468750000000107e+00 -7.654597707003438223e-02 5.707899149305480308e-04 7.654597707003438396e-04 -1.017031250000000140e-03 5.465208240995243771e-02 -9.802892228827310428e-02 7.797778296365290166e-04 -1.519176210618542466e-01 -7.283419818437053767e-04 -1.653205063065316897e-04 3.888971875000000328e-02 -3.143593749999999687e-02
-1.562500000000000033e-04 -6.430156250000000462e+00 -4.674373249013638598e-02 9.669629667794801776e-04 4.674373249013638598e-04 -8.282812500000000244e-04 7.197832648154349477e-02 -8.833878581032186816e-02 9.043196668411633424e-04 -1.459904750162670795e-01 2.836091623919095590e-05 1.763625819355393106e-04 3.940391249999999901e-02 -2.861718750000000200e-02
-1.562500000000000033e-04 -7.969531250000000178e+00 -1.098904045365816096e-01 5.768291379637600479e-04 1.098904045365816078e-03 -8.431250000000000159e-04 1.122825730004473055e-01 -9.352967608726887871e-02 9.532691976897545100e-04 -1.458816501944669441e-01 -2.725855691184656177e-04 -9.537568182696943740e-05 3.980485937500000126e-02 -3.704999999999999960e-02
-1.562500000000000033e-04 -5.959999999999999964e+00 7.246064441636822229e-02 -6.355938333890087883e-04 -7.246064441636822142e-04 -7.368750000000000083e-04 -7.530464371555239955e-02 -9.304527156162308021e-02 -7.490178577198844173e-04 -1.642644832739044991e-01 -1.259986541131983022e-03 -2.958570239438667088e-05 3.616259374999999943e-02 -1.126562499999999960e-03
-1.562500000000000033e-04 -6.745937500000000142e+00 -1.040785484489337165e-01 5.935566844559915251e-04 1.040785484489336688e-03 -8.339062500000002289e-04 8.001917226914762038e-02 -9.605715571184707258e-02 7.397347231542926622e-04 -1.508148079466256342e-01 -8.036025990208912071e-04 1.606427034717578808e-04 3.943187499999999818e-02 -3.254531249999999959e-02
-1.562500000000000033e-04 -5.040937500000000071e+00 -1.236223967412777014e-01 4.063505893491077482e-04 1.236223967412776892e-03 -1.256562500000000084e-03 8.473014516267050877e-02 -8.387181946659529042e-02 9.800075296767247601e-04 -1.465407198967723923e-01 2.195130801412611239e-04 -7.049959313075366315e-05 3.939478125000000358e-02 -3.455468750000000033e-02
-1.562500000000000033e-04 -6.805312500000000320e+00 7.885502493676649349e-02 8.422694019964391569e-04 -7.885502493676651388e-04 5.554687500000000814e-04 7.453768903281608738e-02 -6.494016139991462544e-02 -1.053657438320642747e-03 -1.622335620810495260e-01 -1.617767590025724882e-03 -7.025479447072379552e-05 3.875129218750000132e-02 1.163124999999999923e-02
-1.562500000000000033e-04 -5.799218750000000533e+00 9.560884596483019970e-02 8.769575344438569403e-04 -9.560884596483020708e-04 1.045468749999999957e-03 1.114199919482030954e-01 -5.053929695730660643e-02 -8.317895701594967516e-04 -1.703439169473365822e-01 -1.733306801194663344e-03 -3.198940446918712810e-05 3.918650468750000532e-02 1.730468749999999889e-02
1.562500000000000033e-04 9.999218750000000711e+00 6.893077849882436881e-02 9.626275134603952659e-04 -6.893077849882435753e-04 5.603125000000000466e-04 -7.238095097701890968e-02 5.034713365111219419e-02 7.637317084308820146e-04 1.653637656457358773e-01 2.031365506741691885e-04 -8.170922921257459321e-05 -3.842625937500000061e-02 -8.978124999999999994e-03
-1.562500000000000033e-04 -6.207968750000000036e+00 -1.032587321694863614e-01 4.392911113296495119e-04 1.032587321694863848e-03 -1.016093749999999853e-03 9.390644585446303316e-02 -9.510761852945996686e-02 8.400812968964900410e-04 -1.522150351955503800e-01 -7.154858183809194262e-04 1.499871139235130918e-04 3.921603281250000267e-02 -3.367031250000000059e-02
1.562500000000000033e-04 6.934062500000000462e+00 7.483410924044238410e-02 5.110310153351477636e-04 -7.483410924044239798e-04 1.127656249999999969e-03 -6.248323266039313567e-02 6.459305215105558273e-02 1.212776783618655253e-03 1.630323956321984846e-01 9.976408228098943790e-04 -1.136927197894492032e-04 -3.779663906250000510e-02 -6.739062500000000261e-03
-1.562500000000000033e-04 -8.594218749999999574e+00 5.932164037905675313e-02 -1.237385597511986421e-03 -5.932164037905675313e-04 -9.160937500000001328e-04 -1.177254988576428435e-01 -9.235895158138468508e-02 -8.173466525444037564e-04 -1.663135549873635544e-01 nan nan 3.575982031250000276e-02 3.229687500000000353e-03
-1.562500000000000033e-04 nan 8.411443487801667507e-02 -5.950520560911041947e-04 -8.411443487801665815e-04 -8.906250000000000321e-04 -1.451117808680466303e-01 -1.010683178990553488e-01 -6.596563626673573009e-04 -1.649229304262841977e-01 -1.008445735183030947e-03 1.758510460814579658e-05 3.591956406249999928e-02 4.618749999999999592e-03
1.562500000000000033e-04 8.919375000000000497e+00 7.448180475881853446e-02 4.719574469049085956e-04 -7.448180475881854097e-04 1.214843749999999995e-03 -1.015512366282453061e-01 6.952242116976424524e-02 6.943369944912718182e-04 1.659840131339686276e-01 9.658143331300347943e-04 -1.566330643844038035e-04 -3.801726250000000279e-02 -2.659374999999999847e-03
1.562500000000000033e-04 1.111390624999999943e+01 4.400589902686209698e-02 8.823903228259824582e-04 -4.400589902686210717e-04 5.828124999999999972e-04 -8.556594523694227572e-02 5.443073819749853770e-02 1.144418554373959410e-03 1.658080348257699732e-01 5.649574734839890415e-04 -6.435194880000051545e-05 -3.814739687500000309e-02 -1.369375000000000106e-02
1.562500000000000033e-04 8.132656250000000142e+00 5.851607256638424737e-02 8.791924838564142393e-04 -5.851607256638423175e-04 8.595312500000000522e-04 -1.063373757022145760e-01 6.335826558751188331e-02 1.560462264078264554e-03 1.654566050282434697e-01 1.382343995048126647e-03 -2.164643067771704999e-05 -3.767006562500000572e-02 -8.829687500000000730e-03
-1.562500000000000033e-04 -1.048890624999999943e+01 7.825495016105325774e-02 8.794912916936676326e-04 -7.825495016105326294e-04 7.781250000000000623e-04 2.272917001985829549e-02 -6.840609133840779010e-02 -7.847618420890791618e-04 -1.576053767562802521e-01 -1.018284639952567010e-03 -5.512985657430031372e-05 3.916196562500000311e-02 1.093593749999999948e-02
-1.562500000000000033e-04 -9.274062499999999432e+00 4.785425769359648307e-02 -1.292538651141907297e-03 -4.785425769359647548e-04 -8.235937499999999986e-04 -3.516997129692497892e-02 -8.673542128996981904e-02 -7.789906212517061328e-04 -1.603359235076781963e-01 -5.424915725353569949e-04 -5.267907369609129792e-05 3.632496250000000204e-02 -3.026562500000000173e-03
1.562500000000000033e-04 5.397343750000000107e+00 1.017103954305959013e-01 8.072573186031693727e-04 -1.017103954305958796e-03 7.571875000000000480e-04 -5.067556291103816196e-02 5.939604038320618618e-02 5.531084576073178874e-04 1.622476919697117825e-01 5.335642734235745152e-04 1.723302362960141938e-04 -3.832890156250001040e-02 4.267187500000000147e-03
1.562500000000000033e-04 9.042656250000000284e+00 5.294108294795894787e-02 1.145291230958612799e-03 -5.294108294795896305e-04 6.545312500000000566e-04 -9.638112168198535723e-02 6.671089887909138760e-02 3.636320616180591428e-04 1.644006934608095161e-01 5.338795549235782418e-04 1.255766284427633963e-04 -3.803949687500000204e-02 6.078125000000000194e-03
1.562500000000000033e-04 8.546250000000000568e+00 6.965817975360520664e-02 2.506376008416151828e-04 -6.965817975360521098e-04 1.144999999999999751e-03 -9.789654734850558593e-02 6.159405530396688810e-02 1.193038863412411010e-03 1.672516533796391536e-01 1.156680588026991457e-03 4.679149408043314185e-05 -3.805195468750000032e-02 -1.330781250000000020e-02
-1.562500000000000033e-04 nan 4.266873069246181899e-02 1.046948250490546944e-03 -4.266873069246181292e-04 8.154687499999998960e-04 4.498326437469767070e-02 nan -6.728059465423294949e-04 -1.593940274741202645e-01 -1.023266647504568298e-03 2.529051426936944173e-04 3.989054687500000196e-02 1.498124999999999978e-02
-1.562500000000000033e-04 -6.647968750000000426e+00 -6.663305383811753135e-02 4.485426552375315124e-04 6.663305383811752788e-04 -1.101562499999999894e-03 9.108143604960670936e-02 -9.483611639673020233e-02 7.784992067040082814e-04 -1.556000968319184441e-01 -7.490460943513425592e-04 1.034353432405510955e-04 3.879389843750000177e-02 -2.775156250000000366e-02
-1.562500000000000033e-04 -6.129375000000000462e+00 5.985728495694875306e-02 -7.454596471105194317e-04 -5.985728495694875827e-04 -9.112500000000003843e-04 -9.106640932647090680e-02 -9.624196011891818225e-02 -6.901804102723911290e-04 -1.669593576017148751e-01 -1.379448294315689357e-03 -9.424016476547451740e-05 3.596479218749999707e-02 -8.843750000000000699e-04
-1.562500000000000033e-04 -8.348593750000000924e+00 -7.162358054371052718e-02 8.117523419040548758e-04 7.162358054371053195e-04 -6.673437499999999682e-04 7.439738495591641243e-02 -9.847640838370774752e-02 6.874004198744794892e-04 -1.501121718170245756e-01 -8.123085720953746296e-04 -1.584809182629062384e-04 3.946358750000000110e-02 -2.907500000000000362e-02
-1.562500000000000033e-04 -6.091250000000000497e+00 -7.794555042442795345e-02 7.387151700917670913e-04 7.794555042442795475e-04 -1.094374999999999862e-03 -6.601317573872044278e-03 -1.013878224568783154e-01 2.862676338496226796e-04 -1.540998096081970525e-01 -1.144246886141021477e-03 7.382998003793446017e-05 3.856661718749999912e-02 -2.154687500000000006e-02
-1.562500000000000033e-04 -6.433281250000000284e+00 8.500105550523870401e-02 -9.929294405857571476e-04 -8.500105550523871919e-04 -7.735937500000000843e-04 -6.968645113867343033e-02 -9.164839779371977690e-02 -9.003798116305711079e-04 -1.665428121464261335e-01 -1.276405029055915430e-03 2.717052154967712673e-04 3.577826093750000047e-02 1.314062500000000126e-03
1.562500000000000033e-04 1.073390625000000043e+01 8.434650346797312181e-02 6.438754550004546556e-04 -8.434650346797313656e-04 9.328124999999999395e-04 -1.002933053090357129e-01 6.157305126832546271e-02 5.717728757657074713e-04 1.667704219235028318e-01 6.027491364310557688e-04 -8.561601536338755210e-05 -3.845328437500000057e-02 -5.401562500000000114e-03
-1.562500000000000033e-04 -9.694062499999999361e+00 -7.441454433036566452e-02 6.825791289007120425e-04 7.441454433036567883e-04 -9.065625000000001417e-04 9.155495696091348057e-02 -8.950630889562941062e-02 8.242596980654876134e-04 -1.493082592535906195e-01 -9.995713022693843695e-05 1.788803851350027690e-04 3.952648437500000389e-02 -2.549218750000000269e-02
-1.562500000000000033e-04 nan 1.011651275302867664e-01 -6.895148242998880165e-04 -1.011651275302867439e-03 nan -5.755920481258974125e-02 -8.880453893351911154e-02 -7.811355056982936459e-04 -1.636245666665260279e-01 -1.223483798441055495e-03 2.560934244656738615e-04 3.620162812499999605e-02 -1.650000000000000208e-03
1.562500000000000033e-04 9.527343750000000000e+00 6.529283240431488222e-02 9.737419770903956535e-04 -6.529283240431489697e-04 1.000000000000000021e-03 -8.776315996243180817e-02 5.893547295266862718e-02 9.346870155352624389e-04 1.648019766825630505e-01 4.850231219509451726e-04 3.496407488760413992e-05 -3.788661718749999907e-02 -6.923437500000000772e-03
-1.562500000000000033e-04 -8.989375000000000782e+00 8.429062215308526229e-02 -5.064357140933585131e-04 -8.429062215308526186e-04 -8.062500000000000005e-04 -3.984294645689939740e-02 -9.989472788693846972e-02 -8.426831546298279262e-04 -1.606578599621073244e-01 -1.261443874603390258e-03 -3.387841634030018371e-05 3.627914375000000635e-02 -1.882812500000000154e-03
-1.562500000000000033e-04 -8.651718750000000568e+00 8.555574494686606080e-02 -1.115701406683230904e-03 -8.555574494686609202e-04 -8.028125000000000322e-04 -6.396451880306330828e-02 -9.142313781937544404e-02 -7.241868187598477164e-04 -1.629095986079238390e-01 -7.410316314062387767e-04 1.307103017438021727e-04 3.594239843750000191e-02 -6.890625000000000049e-04
-1.562500000000000033e-04 -1.532953125000000050e+01 4.245512964239606113e-02 6.179881403461326981e-04 -4.245512964239606894e-04 8.996874999999998797e-04 6.125965736700465791e-02 -6.902039974705885539e-02 -3.995931495546770811e-04 nan -7.703622928073158502e-04 -1.200645770099357027e-04 3.985910156249999892e-02 8.490624999999999908e-03
1.562500000000000033e-04 6.230312500000000142e+00 1.029204297753325975e-01 1.033981994743583734e-03 -1.029204297753326044e-03 4.465625000000000193e-04 -7.760203741593255100e-02 5.907834667848362725e-02 2.114084102860722125e-04 1.639476959354137231e-01 5.136293634565684829e-04 -2.090836627413710907e-05 -3.864802968750000178e-02 9.621875000000000219e-03
-1.562500000000000033e-04 -1.241062499999999957e+01 4.397323109306514044e-02 -7.727833521703897238e-04 -4.397323109306514217e-04 -1.028593749999999560e-03 -8.088738201443156084e-02 -9.504692440762949057e-02 -8.004593758704552043e-04 -1.619140987041070290e-01 -7.007672500079563209e-04 1.198431531672650830e-04 3.643226718749999898e-02 5.056249999999999981e-03
-1.562500000000000033e-04 -1.169453125000000071e+01 6.509950176769445374e-02 7.127826060591838705e-04 nan 7.456250000000000855e-04 3.597168759096701363e-02 -7.176440302711040164e-02 -4.722551535170924140e-04 -1.587566395462986779e-01 -9.507319342418563092e-04 5.298829207424014099e-05 3.928563749999999799e-02 6.418749999999999976e-03
-1.562500000000000033e-04 -1.361531249999999993e+01 5.710494704934819532e-02 1.042470152726201462e-03 -5.710494704934820790e-04 1.113281250000000121e-03 7.841995833457841847e-02 -6.059939566324978877e-02 -9.421667239834976421e-04 -1.614647993582367103e-01 -1.288873227747179247e-03 -2.161841215918199077e-04 3.999483281249999883e-02 1.881718750000000231e-02
1.562500000000000033e-04 8.431250000000000355e+00 7.901270735506500664e-02 9.451935758964559453e-04 -7.901270735506501141e-04 6.462500000000000145e-04 -7.150100119375171759e-02 6.057527821204372609e-02 2.548327842242138091e-04 1.636613964999085735e-01 2.634021057068072227e-04 6.984406892388597124e-05 -3.842761562500000144e-02 4.162500000000000401e-03
1.562500000000000033e-04 6.889843749999999822e+00 9.784116223163710768e-02 8.461812195407951518e-04 -9.784116223163711722e-04 8.298437499999999608e-04 -5.204115935022601835e-02 6.043823378393994861e-02 1.128867730652292987e-03 1.616618751155457501e-01 7.960352410826744985e-04 1.369468316525576787e-04 -3.809707968750000034e-02 -2.740625000000000006e-03
-1.562500000000000033e-04 -4.876562500000000355e+00 8.218277137787684261e-02 5.609080864736691987e-04 -8.218277137787684218e-04 4.690624999999999699e-04 9.790396191076634891e-02 -6.439879164747437656e-02 -7.186891907525656559e-04 -1.660202569746774548e-01 -1.653593134041737855e-03 -3.725165920443648636e-05 3.849079843750000118e-02 6.043750000000000511e-03
1.562500000000000033e-04 7.738906250000000320e+00 6.660141541900509166e-02 8.888918998377465762e-04 nan 1.021562499999999901e-03 -7.805182608573103809e-02 6.424223266437011082e-02 5.526726998740267172e-04 1.636592989685694277e-01 4.717863422041964835e-04 7.928757594418772920e-05 -3.788806406249999731e-02 1.517187500000000090e-03
-1.562500000000000033e-04 -7.448437499999999822e+00 -8.176386758538520261e-02 8.079997501301550405e-04 8.176386758538519220e-04 -8.035937499999999461e-04 6.764446634079857024e-02 nan 6.116859893086862374e-04 -1.509533162335998380e-01 -6.060121561679353112e-04 4.056303405424265917e-05 3.943512187499999960e-02 -2.489062500000000303e-02
-1.562500000000000033e-04 -9.139374999999999361e+00 4.250549585343384174e-02 1.170902282967289498e-03 -4.250549585343384499e-04 7.453124999999999898e-04 5.493008434175093019e-02 -7.029317272707463760e-02 -1.043721914987233391e-03 -1.616169259361747435e-01 -1.895036991502482013e-03 1.936841124874681292e-05 3.942488906250000286e-02 1.228593749999999998e-02
1.562500000000000033e-04 9.754531249999999432e+00 7.743574596732739901e-02 6.504989805356531114e-04 -7.743574596732740942e-04 8.821875000000000506e-04 -9.629435807625098820e-02 6.166008024140337551e-02 6.625943502759489446e-04 1.661030189051369566e-01 6.848147905602508956e-04 -3.092398265311103707e-04 -3.834505937499999711e-02 -4.704687499999999668e-03
-1.562500000000000033e-04 -8.676093749999999716e+00 8.322372949762912864e-02 -6.679296078634433314e-04 -8.322372949762912170e-04 -8.942187500000000483e-04 nan -9.776388843534913886e-02 -9.535350666096686651e-04 -1.661240929120001708e-01 -1.298774810399663544e-03 -1.034517353883042569e-04 3.582665000000000155e-02 6.428124999999999811e-03
1.562500000000000033e-04 3.698281249999999964e+00 8.724439784753632021e-02 7.927236768976720889e-04 -8.724439784753632151e-04 8.726562500000000595e-04 -9.626825303827057922e-02 5.887579636657387649e-02 1.392922398299419702e-03 1.645730773661137902e-01 1.397085703696434623e-03 1.072855169150232232e-04 -3.781358437500000058e-02 -2.553124999999999839e-03
-1.562500000000000033e-04 -4.149531249999999893e+00 1.162024681321750241e-01 8.165883531504791650e-04 -1.162024681321750319e-03 5.873437499999999752e-04 1.091392635728197641e-01 -5.513300873711594885e-02 -1.056907244663170741e-03 -1.675360627871373409e-01 -1.692835782313597106e-03 -2.329299290525583741e-04 3.842918593749999889e-02 1.603125000000000036e-02
1.562500000000000033e-04 5.412812500000000249e+00 1.054961298372894124e-01 nan -1.054961298372894193e-03 7.751562500000000206e-04 -6.283900128420619180e-02 6.721582643767394505e-02 5.548389596435489681e-04 1.621198363295215383e-01 9.129305403803083738e-04 nan -3.830633593749999816e-02 8.384374999999999467e-03
1.562500000000000033e-04 4.450312499999999893e+00 1.289846783128479335e-01 1.339618967091667700e-03 -1.289846783128479257e-03 4.368750000000000346e-04 -2.322536226784654989e-02 5.057316465089558427e-02 1.813460348671987090e-04 1.595204540283137462e-01 -1.705436714988204663e-04 -1.694143788899598810e-04 -3.865977656250000477e-02 1.174843750000000020e-02
-1.562500000000000033e-04 -9.546718750000000142e+00 9.324949536972834685e-02 -6.029542414304565195e-04 -9.324949536972832213e-04 -8.554687500000000009e-04 -9.403584759289872197e-02 -9.804949802091730837e-02 -7.914019336038471790e-04 -1.647842971986779037e-01 -1.114026898295558329e-03 2.923911272285687580e-05 3.598175781250000094e-02 4.778125000000000254e-03
-1.562500000000000033e-04 -7.268749999999999822e+00 -3.450239167708945426e-02 1.199110513946874184e-03 3.450239167708945708e-04 -4.648437500000000334e-04 1.305156578583040461e-01 -8.509548738258294887e-02 9.431520185597077515e-04 -1.444006968439207061e-01 -4.412811984296979850e-05 -6.886717075750598438e-05 4.000206249999999769e-02 -2.995312499999999711e-02
-1.562500000000000033e-04 -2.608906249999999982e+00 9.441461251254029685e-02 5.228972031985909064e-04 -9.441461251254029685e-04 7.712500000000000171e-04 6.491025250861889861e-02 -6.722426420668019265e-02 -7.068138699395454597e-04 -1.636839577527609557e-01 -1.779572857106150692e-03 -8.156682634847328901e-05 3.839932031249999878e-02 4.125000000000000520e-04
-1.562500000000000033e-04 -6.993281249999999893e+00 -8.879390075106015356e-02 -1.196549039899183009e-03 8.879390075106014316e-04 -6.248437500000000736e-04 8.281002724795114012e-02 -6.111304301761327079e-02 -5.256092603014194320e-04 -1.633996122802190976e-01 -5.706940094425269009e-04 -8.289582609692047226e-06 3.821876093749999870e-02 -6.678125000000000033e-03
-1.562500000000000033e-04 -8.601250000000000284e+00 nan 1.210088381908032765e-03 6.606972296953745032e-04 -3.040625000000000250e-04 9.293689409563259118e-02 -9.032778312558510658e-02 7.290049708677093622e-04 -1.453060116788004452e-01 -4.644116276294137959e-04 5.393123107036602989e-05 4.021565312500000045e-02 -2.821406249999999782e-02
-1.562500000000000033e-04 -2.269062499999999982e+00 7.744545961559405611e-02 -1.100641520661942672e-03 -7.744545961559405264e-04 -6.560937499999999929e-04 -6.097250500493282127e-02 -8.436439467716955187e-02 -9.694942121326627794e-04 -1.657742934130228551e-01 -1.332957234624503919e-03 nan 3.574327031250000564e-02 -2.721875000000000336e-03
-1.562500000000000033e-04 -9.216250000000000497e+00 7.495597204763537746e-02 -1.112006152132383316e-03 -7.495597204763536098e-04 -8.795312499999999962e-04 -7.823075787989500207e-02 -9.302367445257327117e-02 -8.804497501438625535e-04 -1.641049405313579068e-01 -9.084120397871663349e-04 -1.642171157594044797e-04 3.587226250000000172e-02 2.275000000000000112e-03
-1.562500000000000033e-04 -6.649843750000000497e+00 -8.556615485946440780e-02 8.636612276008790584e-04 8.556615485946439609e-04 -6.189062499999999903e-04 1.302451950259222446e-01 -9.184052327102260049e-02 9.416812819555027674e-04 -1.447996690094670580e-01 -3.974297825199635194e-04 9.100266725716084099e-05 3.996102968749999651e-02 -3.759843749999999818e-02
1.562500000000000033e-04 9.343750000000000000e+00 7.226138364302003847e-02 9.068416963093191502e-04 -7.226138364302003717e-04 7.585937500000000449e-04 -1.137221291809378948e-01 6.797296947749896512e-02 7.750681132424183314e-04 1.659107690500167265e-01 1.079220212307234819e-03 -4.778810098237401701e-05 -3.813472812500000308e-02 8.734374999999999735e-04
-1.562500000000000033e-04 -5.623124999999999929e+00 -1.020935763827172660e-01 nan 1.020935763827172460e-03 -1.063281249999999990e-03 2.121761285833570140e-02 -9.592773251085208452e-02 8.663126780819244274e-04 -1.461582318914816381e-01 -1.985376022536955768e-04 2.293196087131160906e-04 3.917183125000000404e-02 -3.411249999999999699e-02
1.562500000000000033e-04 4.750468750000000462e+00 1.048273585107695471e-01 6.861342101528097870e-04 -1.048273585107695541e-03 1.054062500000000095e-03 -7.622821145203458049e-02 6.095491951639141204e-02 8.780454443496388305e-04 1.637597931209621993e-01 9.302280676213684233e-04 7.877610771711580494e-05 -3.806050781250000514e-02 8.656250000000000749e-04
1.562500000000000033e-04 1.048031250000000014e+01 7.615604015139375293e-02 9.570812396973541218e-04 -7.615604015139375424e-04 7.698437499999999118e-04 -9.990750311202559186e-02 5.920197354339475082e-02 8.506440955585924070e-04 1.659560773106597831e-01 6.423920543708213065e-04 -1.139755531159423357e-04 -3.825428593750000023e-02 -5.931249999999999890e-03
-1.562500000000000033e-04 -4.104375000000000107e+00 8.748853931870842482e-02 -8.058801473360786968e-04 -8.748853931870842872e-04 -5.832812500000000323e-04 -9.965233705758652638e-02 -8.413290301988604614e-02 -6.840899279401536741e-04 -1.651977127441231763e-01 -9.278588781662078754e-04 -1.834604794436200676e-04 3.602224062500000018e-02 6.984374999999999481e-04
1.562500000000000033e-04 8.302187500000000497e+00 4.563635568940768716e-02 6.535860067235676118e-04 -4.563635568940768001e-04 6.773437499999999944e-04 -9.577449776759856814e-02 6.903226978806387137e-02 9.101940088097941689e-04 1.649929140129378913e-01 1.198535260322926548e-03 5.835879149363210907e-05 -3.798483281250000093e-02 -1.331249999999999968e-03
-1.562500000000000033e-04 -6.695312500000000000e+00 -1.057332986496597044e-01 1.138647852707882178e-03 1.057332986496596671e-03 -4.056250000000000068e-04 1.016383029162102741e-01 -8.384890860536645119e-02 7.276371535218185754e-04 -1.429697546767449146e-01 -2.652181615607922586e-04 2.147579859178578698e-04 4.046523906249999830e-02 -3.147343749999999968e-02
-1.562500000000000033e-04 -9.264062499999999867e-01 1.191943942125709421e-01 3.558819761742504860e-04 -1.191943942125709040e-03 4.210937499999999729e-04 7.334891029064652401e-02 -6.444941208242202513e-02 -8.572220709344827204e-04 -1.629849197832628216e-01 -1.552016695532689198e-03 1.414053909522793954e-05 3.774300625000000242e-02 1.771875000000000012e-03
-1.562500000000000033e-04 -8.369687499999999503e+00 nan 1.382369629285047944e-03 -7.268681351902236878e-04 7.150000000000001407e-04 6.233428610670179587e-02 -6.303751843339239214e-02 -1.048518015643257976e-03 -1.652287423469746830e-01 -1.823051018772006097e-03 3.218647989446019302e-04 3.929339687500000428e-02 1.980625000000000094e-02
-1.562500000000000033e-04 -4.695781250000000462e+00 7.075701996006829309e-02 -9.103066650373683229e-04 -7.075701996006832344e-04 -7.376562500000000307e-04 -1.020376514779915145e-01 -9.239967661109987906e-02 -7.675266013174714391e-04 -1.666510033055046691e-01 -1.325828690978230178e-03 -1.475858716619001475e-04 3.583342656249999952e-02 -1.296875000000000068e-03
1.562500000000000033e-04 9.988125000000000142e+00 3.968856456235814179e-02 9.591883343876550765e-04 nan 4.676562500000000814e-04 -5.704991988063159297e-02 7.073945760611161093e-02 6.035482469789669839e-04 1.612960435020404371e-01 6.066400836000313901e-04 -3.556277277729373755e-05 -3.806135937499999927e-02 3.548437500000000376e-03
-1.562500000000000033e-04 -5.244218749999999929e+00 -1.167885891021206990e-01 1.351351836704007929e-03 1.167885891021206921e-03 -2.256249999999999955e-04 7.428377844866113078e-02 -9.007778694169168987e-02 3.002779039192607293e-04 -1.449887077787965495e-01 -1.156909905743452698e-03 -3.775515681792277920e-04 4.040712499999999513e-02 -2.946874999999999842e-02
-1.562500000000000033e-04 -9.228281250000000213e+00 5.637804660331813961e-02 -7.671744067299625597e-04 -5.637804660331815002e-04 -9.789062499999999587e-04 -1.456902518212352671e-01 -1.047567015030266696e-01 -6.304505090134482088e-04 -1.671981997137300946e-01 -1.309489611703842579e-03 3.706236254958806007e-05 3.586884218749999964e-02 1.545312500000000028e-03
-1.562500000000000033e-04 -1.120921874999999979e+01 -8.736441779770973137e-02 8.016750595909613543e-04 8.736441779770974959e-04 -5.343750000000000193e-04 1.069247753822902686e-01 -9.441997141725720633e-02 9.604050241037955698e-04 -1.454390291181262007e-01 -1.926451851363622644e-04 7.601853761212093463e-05 4.016427656250000366e-02 -3.213593749999999610e-02
-1.562500000000000033e-04 -4.612031250000000249e+00 -1.101746789140004429e-01 9.710876916589159403e-04 1.101746789140004446e-03 -7.224999999999999435e-04 8.212949439862962664e-02 -8.611554837002514950e-02 5.837638415824038642e-04 -1.456268156380745304e-01 -5.076396799900290699e-04 1.134905391135914080e-05 3.986001562500000178e-02 -3.100156249999999961e-02
1.562500000000000033e-04 6.996875000000000178e+00 8.635387530479264606e-02 1.035398864120013482e-03 -8.635387530479263826e-04 4.792187500000000440e-04 -2.130186587774769019e-02 5.674165409396723231e-02 4.665279377896028637e-05 1.602790438476449364e-01 -2.211271573010692502e-04 9.008147859257444588e-05 -3.854735624999999777e-02 7.807812499999999649e-03
1.562500000000000033e-04 8.156093750000000142e+00 8.629321506288241406e-02 nan -8.629321506288240408e-04 9.176562499999996354e-04 -4.671793326491663345e-02 6.023297786101635548e-02 6.235747899839721217e-04 1.629181361440247555e-01 3.904842724716031926e-04 -6.972085869178276218e-05 -3.831824375000000144e-02 -3.462500000000000300e-03
-1.562500000000000033e-04 -4.754687500000000178e+00 -7.484810204702206649e-02 1.210378993801486218e-03 7.484810204702206302e-04 -6.598437499999999485e-04 3.606622131480109045e-02 -8.552551035439390215e-02 4.921995172327735604e-04 -1.464117453669700752e-01 -4.227149467092576780e-04 -1.176258483112784409e-04 3.962361562499999712e-02 -2.385781249999999881e-02
-1.562500000000000033e-04 -3.311562499999999964e+00 1.102762310842310967e-01 4.594552221554541326e-04 -1.102762310842311062e-03 6.692187500000001087e-04 5.749527762863521074e-02 -6.448759038624152229e-02 -7.661619123594263017e-04 -1.617958992860836498e-01 nan 3.607951534078647439e-05 3.822195312499999942e-02 3.175000000000000305e-03
-1.562500000000000033e-04 -5.131562500000000249e+00 -8.077329552390333234e-02 8.336447731633270112e-04 8.077329552390332974e-04 -9.687500000000001015e-04 1.610494554686932311e-02 -9.621980752019805572e-02 5.159508481268025581e-04 -1.497880869114755764e-01 -7.341244597304632863e-04 8.987335084106500623e-05 3.897431406250000119e-02 -2.676875000000000088e-02
-1.562500000000000033e-04 -1.041000000000000014e+01 7.584316933838076980e-02 -2.976964607970450155e-04 -7.584316933838076763e-04 -9.729687500000000922e-04 -1.143588643409742256e-01 -1.017841642662783430e-01 -1.121157030547966079e-03 -1.668727635665711584e-01 -1.592843928143422832e-03 -8.859145451541730674e-05 3.601705781250000293e-02 1.162656249999999974e-02
1.562500000000000033e-04 1.093031249999999943e+01 4.020185969483223293e-02 5.833815085798483777e-04 -4.020185969483224507e-04 1.080624999999999988e-03 -7.291726677480696306e-02 6.520023089400051042e-02 1.351129236299462811e-03 1.638843213409924005e-01 8.284457764969646284e-04 -1.018774411451909613e-04 -3.768088437500000110e-02 -1.417187500000000044e-02
-1.562500000000000033e-04 -8.875781250000001066e+00 -4.795786764286023851e-02 8.456905536746046068e-04 4.795786764286025109e-04 -7.803124999999999731e-04 3.284036231254271188e-02 -9.615049440186825003e-02 6.984752972711704040e-04 -1.515218973107328726e-01 -4.998794395494143925e-04 6.637335433074219420e-07 3.914316562499999680e-02 -2.244062500000000224e-02
1.562500000000000033e-04 1.378578124999999943e+01 2.879895259431928395e-02 3.027602543378462023e-04 -2.879895259431928568e-04 9.792187500000000544e-04 -6.677937701338350351e-02 6.171702059992769523e-02 8.772102616283483385e-04 1.658854783129118382e-01 3.462769711353066819e-04 -3.944726631170499724e-04 -3.816483749999999980e-02 -1.862656249999999902e-02
1.562500000000000033e-04 8.919687500000000213e+00 9.478691582064349697e-02 7.408777781815357316e-04 -9.478691582064349870e-04 9.790625000000001150e-04 -6.857048110242768002e-02 5.787067025721163299e-02 1.199939391036458115e-03 1.640041439866493922e-01 7.355864276201552017e-04 -9.079238355616659872e-05 -3.814504374999999614e-02 -9.753124999999999642e-03
1.562500000000000033e-04 8.967656250000000995e+00 8.524794039903854648e-02 6.001529163547370547e-04 -8.524794039903854778e-04 9.950000000000000077e-04 -1.400818407858794024e-01 6.627053127438231606e-02 7.512762449169111279e-04 1.687366404205903059e-01 1.268453571966082901e-03 1.400361911129356293e-04 -3.827168125000000171e-02 -2.371874999999999852e-03
-1.562500000000000033e-04 -6.708281249999999751e+00 -6.236216341223514009e-02 8.671771528533298284e-04 6.236216341223515093e-04 -8.176562499999999152e-04 6.180864847452206129e-02 -9.479001282360922931e-02 5.113465136419989218e-04 -1.523055562835507470e-01 -8.902855318519837776e-04 -7.479269949980838926e-05 3.913335625000000095e-02 -2.414843750000000150e-02
1.562500000000000033e-04 8.301875000000000782e+00 8.621733938798900598e-02 nan -8.621733938798901162e-04 9.242187500000000186e-04 -1.248194659094008507e-01 6.537314198399536702e-02 2.103791433053414563e-04 1.676552507245541723e-01 7.773186585557481697e-04 -3.154503198738572165e-04 -3.838933437500000045e-02 4.789062499999999917e-03
-1.562500000000000033e-04 -8.875468749999999574e+00 5.705518797500683248e-02 -9.511632628190481954e-04 -5.705518797500682381e-04 -1.046718749999999906e-03 -1.073571729121301915e-01 -9.962706580429203651e-02 -6.251357605892969181e-04 -1.666266458132343031e-01 -1.107760766099245408e-03 -4.574075216958459807e-05 3.585331718750000424e-02 3.171874999999999781e-04
1.562500000000000033e-04 9.708593750000000355e+00 3.481683704068753993e-02 9.802069308779204956e-04 -3.481683704068752475e-04 2.695312500000000226e-04 -9.313395559648356137e-02 6.573349759006809345e-02 6.279679295459844558e-04 1.647283071242991448e-01 8.316635118102304368e-04 5.294693509052647204e-05 -3.823530937500000532e-02 1.634375000000000194e-03
1.562500000000000033e-04 2.773437500000000000e-01 nan 5.060042377875143991e-04 -1.175784209674976630e-03 8.064062500000000484e-04 7.314641591896209327e-05 5.727233283178406048e-02 1.439721720235654029e-03 1.580147672527156266e-01 1.112046279146280091e-03 2.562208689927456307e-05 -3.798788125000000099e-02 2.390625000000000172e-04
-1.562500000000000033e-04 -7.056562500000000071e+00 5.806898832942367084e-02 7.724597837708237127e-04 -5.806898832942368081e-04 8.510937500000000707e-04 7.963588182892680778e-02 -6.367599909048021756e-02 -5.014392393583614813e-04 -1.673926607234847430e-01 -1.690276352817728697e-03 -1.702736617192627188e-04 3.925925624999999919e-02 7.517187500000000432e-03
-1.562500000000000033e-04 -1.248765625000000057e+01 5.668452786535702059e-02 -7.804060696674205771e-04 -5.668452786535703360e-04 -1.040781250000000040e-03 -1.031211432838482489e-01 -8.926181030165733499e-02 -7.098464309768691893e-04 -1.641014757435199922e-01 -4.006494538450770717e-04 9.492627536451813969e-05 3.633934218749999834e-02 1.025624999999999974e-02
1.562500000000000033e-04 nan 8.949722095179234171e-02 7.249659829262122606e-04 -8.949722095179234735e-04 1.240312499999999879e-03 -4.897924065723434361e-02 6.269253924039308590e-02 1.095979832775237839e-03 1.616126061779505074e-01 6.356572244981776188e-04 1.521723629258166840e-04 -3.776336406249999889e-02 -4.776562500000000426e-03
1.562500000000000033e-04 7.153593749999999751e+00 8.518456243593386379e-02 6.300805323997343095e-04 -8.518456243593383733e-04 9.948437500000000683e-04 -6.487592216716360494e-02 6.101153339550406673e-02 6.147873781909140179e-04 1.637423283630149995e-01 5.293088305195191865e-04 1.048458546758957740e-04 -3.817882656250000395e-02 -1.325000000000000006e-03
1.562500000000000033e-04 6.406562499999999716e+00 7.826647133645120435e-02 1.161544982750492127e-03 -7.826647133645119655e-04 6.840624999999999917e-04 -7.357384052030728483e-02 6.248922189775400066e-02 4.224539867819859730e-04 1.626043547491535790e-01 4.601055640670461506e-04 8.852952202699120650e-05 -3.808250156250000268e-02 8.228124999999999328e-03
-1.562500000000000033e-04 -8.192656250000000639e+00 -5.973876196008690714e-02 8.912984909560940335e-04 5.973876196008690975e-04 -6.964062499999999767e-04 3.739445471315441111e-02 -9.987053460009061301e-02 6.048122875724762848e-04 -1.513019386829073110e-01 -8.655975348467416161e-04 1.301027790747945540e-04 3.922489375000000333e-02 -2.526718750000000319e-02
1.562500000000000033e-04 6.071875000000000355e+00 8.852118844166545486e-02 4.599966096783179273e-04 -8.852118844166546093e-04 9.762499999999996875e-04 -4.583027760567572051e-02 5.638516850332429831e-02 8.907129019510874861e-04 1.630973669423915751e-01 5.717513600990505214e-04 2.616986355599117066e-04 -3.819787187499999737e-02 -6.229687499999999982e-03
1.562500000000000033e-04 8.479218749999999361e+00 2.860536683981877715e-02 1.025272937992826455e-03 -2.860536683981876891e-04 5.867187500000000007e-04 -7.162111861160411208e-02 5.420285320654435329e-02 7.182622789475802058e-04 1.642503489434818109e-01 1.969030672208846289e-04 -6.765033524010890812e-06 -3.792729218750000297e-02 -5.445312500000000500e-03
1.562500000000000033e-04 1.040078124999999964e+01 5.655937659674213636e-02 6.959450983735280790e-04 -5.655937659674214113e-04 7.498437500000000762e-04 -1.354441761350737850e-01 7.074763642991756252e-02 1.230057649484949875e-03 1.674710855407212096e-01 1.618799244781716357e-03 -2.603162946949980788e-04 -3.802680781250000058e-02 -5.748437500000000075e-03
1.562500000000000033e-04 1.015468749999999964e+01 4.460612428680632569e-02 6.018223670073732890e-04 -4.460612428680633176e-04 7.500000000000000156e-04 -8.819386644376514539e-02 6.237938726302338921e-02 6.843153816235950397e-04 1.658388081518351875e-01 6.343704473098987426e-04 1.180367883112401711e-04 -3.819611406250000146e-02 -6.537500000000000776e-03
-1.562500000000000033e-04 -6.989062500000000178e+00 -8.951647937977086356e-02 8.731850295547822962e-04 8.951647937977084968e-04 -7.306250000000000461e-04 4.397871020672618897e-02 -9.290156408633550023e-02 4.798229093070506914e-04 -1.510855447659738837e-01 -8.255862529945741900e-04 5.952849871943328900e-06 3.943903281249999671e-02 -2.409374999999999711e-02
1.562500000000000033e-04 7.513437500000000213e+00 9.059968265452006397e-02 3.947158649782453520e-04 -9.059968265452006137e-04 4.565625000000000456e-04 -8.119045800735699703e-02 5.686966016498828935e-02 1.319936632290792493e-03 1.655946921852826659e-01 1.359410671993575501e-03 -1.137865584321549943e-04 -3.862443437500000243e-02 -9.925000000000001529e-03
-1.562500000000000033e-04 nan -9.240946001703143065e-02 7.004221609611095906e-04 9.240946001703144669e-04 -8.462500000000001054e-04 5.524362067968725115e-02 -9.406692119664937513e-02 8.768900334448473301e-04 -1.460152522694917465e-01 -2.883099826443517188e-05 1.778585883893873195e-04 3.966872968750000117e-02 -2.934531250000000160e-02
-1.562500000000000033e-04 -1.064234375000000021e+01 6.197513941462496484e-02 -9.437528999584263167e-04 -6.197513941462496918e-04 -1.055625000000000140e-03 -5.916086946679656455e-02 -1.035052018954148584e-01 -1.015894901605063436e-03 -1.650240980354527598e-01 -1.462726491595083131e-03 -3.406177882379349199e-04 3.586127656250000240e-02 1.506250000000000210e-03
-1.562500000000000033e-04 -5.919843750000000071e+00 8.248644613269753845e-02 -7.034674784730838995e-04 -8.248644613269754495e-04 -7.837500000000000499e-04 -9.492326878212468955e-02 -9.186210991899859679e-02 -5.542598392842138302e-04 -1.652698355791120399e-01 -9.986048841398094834e-04 -9.288223532103689038e-05 3.602000312500000523e-02 -6.296875000000000389e-04
-1.562500000000000033e-04 -1.322796875000000050e+01 4.569612492993799929e-02 5.911859666731454329e-04 -4.569612492993796742e-04 9.312500000000000031e-04 5.906456420585936423e-02 -6.748463401302107201e-02 -4.279427535774711524e-04 -1.600749915626898945e-01 -9.183721694009394382e-04 -2.652960287429949522e-04 3.971065781250000121e-02 7.270312500000000733e-03
-1.562500000000000033e-04 -7.245312499999999822e+00 8.147347499887924727e-02 1.003454433362563044e-03 -8.147347499887925421e-04 3.514062500000000476e-04 6.386310412491633115e-02 -6.808317338432115506e-02 -1.195684774970586211e-03 -1.605105596427296444e-01 -1.611968336793022372e-03 1.457459571579626653e-04 3.860473749999999982e-02 1.365937500000000138e-02
-1.562500000000000033e-04 -6.398281250000000142e+00 -6.730408497269996237e-02 1.048463999576582876e-03 6.730408497269994503e-04 -5.779687500000000320e-04 1.240966500741940287e-01 -8.420004999791673439e-02 7.689025449724145450e-04 -1.468312783975428137e-01 -3.282577305242390131e-04 -2.522419839327618720e-04 3.993773125000000396e-02 -2.898437499999999972e-02
1.562500000000000033e-04 1.239546875000000092e+01 6.317432430272369726e-02 8.741674657884761701e-04 -6.317432430272371547e-04 7.653124999999999338e-04 -9.485169857342043431e-02 5.638341964470951900e-02 4.957983154944363337e-04 1.667907270570493372e-01 1.591809152080813619e-04 -1.143504880655354570e-04 -3.844709375000000123e-02 -8.342187500000000644e-03
-1.562500000000000033e-04 -5.195468749999999858e+00 5.417483919040275847e-02 -1.608868647399790954e-03 -5.417483919040273418e-04 -9.512499999999999472e-04 -6.257048486641958451e-02 -9.269597179945086862e-02 -1.475881989300756401e-03 -1.679408465554989571e-01 -1.767236334061722015e-03 -7.341432220626341852e-05 3.522314687499999986e-02 7.265625000000001032e-04
-1.562500000000000033e-04 -3.631406249999999947e+00 5.189387896928288751e-02 -7.968108325535776292e-04 -5.189387896928288535e-04 -8.498437500000000132e-04 -1.092050673210698125e-01 -9.678656730809070963e-02 -7.709530636510811535e-04 -1.682685095510752793e-01 nan 1.653295156663984593e-05 3.580386249999999854e-02 -2.953125000000000021e-03
-1.562500000000000033e-04 -1.151203124999999972e+01 5.852719510200345837e-02 1.050523046119069539e-03 -5.852719510200344796e-04 6.487500000000000211e-04 5.649886236525424044e-02 -6.825868671757751027e-02 -1.042797567948476698e-03 -1.591236349391139948e-01 -1.367541235193406313e-03 -1.629819383605691282e-04 3.935314062499999793e-02 1.512499999999999956e-02
-1.562500000000000033e-04 -7.517968750000000533e+00 -8.225836229796028298e-02 7.713853117431927579e-04 8.225836229796031204e-04 -8.856249999999995853e-04 2.499684309065981422e-02 -9.331451169230091380e-02 4.065029216649670486e-04 -1.541740582520400027e-01 -8.570051703574865657e-04 -8.067704577496097036e-05 3.909535625000000458e-02 -1.941093749999999937e-02
-1.562500000000000033e-04 -9.339531250000000284e+00 5.766212149462590641e-02 -6.870294519651265908e-04 -5.766212149462590685e-04 -1.021562499999999901e-03 -1.184588702531855081e-01 -9.593834080315305490e-02 -5.633186164989403746e-04 -1.660214252080466635e-01 -8.880826938192621332e-04 -6.964077833515479505e-05 3.611360000000000264e-02 3.940624999999999684e-03
-1.562500000000000033e-04 -4.176874999999999893e+00 9.469594158179410470e-02 3.296451831023775991e-04 -9.469594158179413159e-04 5.440625000000000582e-04 1.016422957374131519e-01 -6.313999738625644675e-02 -5.338145758091531476e-04 -1.663944416388331848e-01 nan -1.815744178114651536e-05 3.834933593749999953e-02 2.617187500000000156e-03
1.562500000000000033e-04 4.155624999999999680e+00 9.321354443852714056e-02 6.670807933985916337e-04 -9.321354443852720214e-04 9.421875000000000996e-04 -1.606552986789375193e-02 6.405394203492283112e-02 1.698510110236655605e-03 1.581782494024533692e-01 1.187742617350714481e-03 -2.402175291483171033e-04 -3.765016093750000320e-02 -4.298437500000000175e-03
-1.562500000000000033e-04 -5.737812500000000426e+00 8.455334284370270848e-02 -1.065516070117664138e-03 -8.455334284370269416e-04 -7.265625000000001032e-04 -3.489137010300945307e-02 -9.263998895065900241e-02 -7.513694402451714764e-04 -1.621786841950008939e-01 -1.105788158662850346e-03 9.663308692675921514e-05 3.593207500000000082e-02 -7.006250000000000325e-03
-1.562500000000000033e-04 -7.168281249999999716e+00 -3.711095332739707681e-02 7.631269048556090992e-04 3.711095332739707182e-04 -8.771875000000000375e-04 1.089275898423762434e-01 -9.490554572356377228e-02 1.088908754415272200e-03 -1.469456384244200720e-01 -1.260719094595339743e-04 4.831960582358361023e-05 3.924737031250000174e-02 -3.450937500000000185e-02
-1.562500000000000033e-04 -3.648125000000000284e+00 9.285814435661501887e-02 nan -9.285814435661502190e-04 5.665625000000000088e-04 1.077955620961693201e-01 -5.720267075577188665e-02 -9.313956291287282894e-04 -1.703227109739880452e-01 -1.996300610022557539e-03 8.974116229634897441e-05 3.863135312499999668e-02 1.506250000000000124e-02
-1.562500000000000033e-04 -9.143124999999999503e+00 6.949721323009754037e-02 6.171939342231774804e-04 -6.949721323009757029e-04 9.845312499999999464e-04 6.880553186894748652e-02 -6.166308923640183293e-02 -3.242230269857774932e-04 -1.653901348950383987e-01 -1.176204717061506665e-03 1.362259983181729386e-04 3.939027656250000675e-02 7.620312500000000350e-03
-1.562500000000000033e-04 -3.153750000000000053e+00 9.674017000365824070e-02 7.465622391500308184e-04 -9.674017000365825241e-04 4.651562499999999665e-04 5.942964690235505443e-02 -6.941924184149994570e-02 -6.587671373537636607e-04 -1.649740157191186551e-01 -1.754118831258326102e-03 5.061846942741623888e-05 3.826051718750000247e-02 3.834375000000000110e-03
-1.562500000000000033e-04 -9.377812500000000995e+00 9.263981923491552972e-02 -2.920455628974835617e-04 -9.263981923491553102e-04 -7.079687500000002645e-04 -1.450496676289203257e-01 -1.056102090981577979e-01 -7.283044573584157187e-04 -1.652915790073729574e-01 -1.436951270091376895e-03 9.763217141676374820e-05 3.606770468750000042e-02 4.503125000000000183e-03
1.562500000000000033e-04 6.654843750000000391e+00 7.415072901610907097e-02 7.769003304126257184e-04 -7.415072901610907661e-04 8.221875000000001101e-04 -6.541332894129787967e-02 6.348734111124562651e-02 5.441885074656229370e-04 1.630962910206474048e-01 5.931966219734281006e-04 1.354350095840192168e-05 -3.810614531249999909e-02 3.015625000000000076e-03
-1.562500000000000033e-04 -1.146187500000000092e+01 1.153555564182462967e-01 -6.999924885698450379e-04 -1.153555564182463019e-03 -7.037499999999999485e-04 -1.356677636384931163e-01 -9.861926633722482849e-02 -4.317855042361797339e-04 -1.629919514206980002e-01 -4.981162346813840800e-04 -2.546433694519396711e-04 3.601510468750000055e-02 4.079687499999999981e-03
-1.562500000000000033e-04 -6.608281250000000107e+00 -8.298420126696641475e-02 5.355767221559942478e-04 8.298420126696640520e-04 -9.684375000000001142e-04 7.267117267758600729e-02 -9.859599722286316315e-02 7.598251024377067515e-04 -1.526659321547460535e-01 -8.379665671536542203e-04 -8.328440121021279583e-05 3.903120000000000200e-02 -3.130937500000000040e-02
-1.562500000000000033e-04 -9.005156250000000639e+00 9.132218877072813268e-02 -6.472213782294034337e-04 -9.132218877072813571e-04 -7.576562500000000831e-04 -1.172675975695992578e-01 -9.882133908401519173e-02 -4.879648637126572956e-04 -1.657197459008141471e-01 -9.984141180125120744e-04 -4.758403628390848523e-05 3.603995156249999859e-02 1.620312500000000008e-03
1.562500000000000033e-04 6.652656249999999716e+00 6.630038398134893707e-02 1.340127698650179144e-03 -6.630038398134893750e-04 6.501562500000001264e-04 -2.392659748124797980e-02 5.268617305714677623e-02 1.150392572114001220e-03 1.591697972154494101e-01 1.193656300681565635e-04 -3.140306429091440672e-05 -3.773666718750000315e-02 -3.410937499999999907e-03
1.562500000000000033e-04 1.043343750000000014e+01 3.553712828393843642e-02 1.005975466275288660e-03 -3.553712828393843968e-04 6.362499999999999883e-04 -7.861210144995146865e-02 6.504902546765183036e-02 1.213374625161916728e-03 1.631548636021827037e-01 8.352924693800257983e-04 -2.185363143281974726e-04 -3.777745468750000335e-02 -6.689062500000000563e-03
-1.562500000000000033e-04 -5.157812500000000355e+00 7.019970139168901779e-02 -7.937529155193144385e-04 -7.019970139168902040e-04 -6.571875000000001110e-04 -1.845058641628212481e-02 -7.952164189762563062e-02 -1.025866467325505828e-03 -1.619880208235015551e-01 -9.822945182739587812e-04 -1.458588996467508796e-04 3.636938906250000020e-02 1.126562499999999960e-03
-1.562500000000000033e-04 -6.834999999999999964e+00 8.715065297166864344e-02 -4.970428421925611896e-04 -8.715065297166861786e-04 nan -6.230590416279781912e-02 -8.995594035928816679e-02 -6.038401668546698568e-04 -1.639484213153601377e-01 -1.057844643914634345e-03 5.424825845743140731e-06 3.642849374999999890e-02 1.000000000000000048e-04
-1.562500000000000033e-04 -3.932500000000000107e+00 3.362260412178610242e-02 -1.164036818484466638e-03 -3.362260412178610090e-04 -9.876562500000002527e-04 -8.077815901407939259e-02 -8.883139658936317629e-02 -8.061074972580107266e-04 -1.672587353286645595e-01 -1.282247248351073244e-03 -5.313732282347307528e-05 3.582438437500000405e-02 -3.073437500000000214e-03
1.562500000000000033e-04 6.694843750000000426e+00 9.019294626087469291e-02 8.095563411353780964e-04 -9.019294626087469811e-04 4.309375000000000054e-04 -4.980311836611445164e-02 6.555841177478226312e-02 5.010595549313924925e-04 1.613494043540591727e-01 7.449915505125248583e-04 4.771528806274504388e-05 -3.850438281250000150e-02 7.624999999999999833e-03
1.562500000000000033e-04 6.407187500000000036e+00 1.084894074340831682e-01 3.173821389305578181e-04 -1.084894074340831760e-03 1.181406249999999948e-03 -6.602108519799425312e-02 6.521194619557078853e-02 5.497919926673249620e-04 1.639881516001566453e-01 7.922375415136553118e-04 -2.480358972199479475e-05 -3.833867812499999750e-02 3.468750000000000154e-04
-1.562500000000000033e-04 nan -1.001050055822291923e-01 6.293800414705557440e-04 1.001050055822291741e-03 -8.489062499999999430e-04 7.215125836782308733e-02 -1.010939891061662099e-01 7.437816673188095851e-04 -1.489378964527759974e-01 -8.742038002510286836e-04 1.391862728372428178e-05 3.934452812500000007e-02 -3.562187499999999729e-02
1.562500000000000033e-04 8.296718750000000142e+00 9.548982266101163630e-02 4.753477495342287788e-04 -9.548982266101166622e-04 1.005781250000000165e-03 -1.141832472878925864e-01 6.619304502709871807e-02 4.828272430981684032e-04 1.675557037865805787e-01 1.030041803753177065e-03 -6.525171460517444836e-05 -3.844072031250000271e-02 2.328125000000000008e-04
-1.562500000000000033e-04 -6.075000000000000178e+00 6.115210493251019286e-02 -7.988637117008204813e-04 -6.115210493251019069e-04 -9.167187500000001073e-04 -9.643623297666450989e-02 -9.947302967921006767e-02 -8.741768243972832409e-04 -1.667012632617660417e-01 -1.597072996252627648e-03 1.175382877103953150e-04 3.579549531250000166e-02 -8.812499999999999804e-04
1.562500000000000033e-04 1.129609375000000071e+01 8.223945880849357903e-02 6.976665465903904599e-04 -8.223945880849359465e-04 8.790625000000000695e-04 -7.862830010792951074e-02 5.684847131379269086e-02 4.964622748286931465e-04 1.660964320979667896e-01 2.124269756406480664e-04 -3.194026262754691360e-04 -3.852900468750000001e-02 -7.826562500000000186e-03
